{{0.22985156, -0.0123276105, -0.20224874, -0.0011830466, 0.02753209, 0.18339892, -0.07570628, 0.24479109, 0.31427416, 0.12006712, -0.061454553, 0.22119923, 0.15140359, 0.08368523, 0.059892043, -0.16216157, -0.2528632, -0.23798177, 0.130405, -0.099801384, -0.12690914, 0.14451404, 0.18573819, -0.0019069248, -0.012759466, -0.20243956, 0.09817975, 0.30091727, 0.018884998, -0.24416083, -0.1475755, 0.23208821, 0.33937493, -0.20602715, -0.11404537, 0.101973064, -0.011656286, 0.050695527, 0.06347461, 0.30484557, -0.35738853, 0.3344574, 0.085742615, 0.30904475, 0.29913732, -0.12249089, 0.08907375, 0.14193848, -0.12578215, 0.17776547, -0.04535464, -0.0022544155, 0.17603815, 0.10704727, 0.041685805, 0.08529649, 0.021158427, 0.26606983, 0.05070289, 0.15543252, -0.07507245, -0.25973076, -0.115850225, -0.18985723}, 
{-0.075716, -0.39771685, -0.2500771, 0.46021563, 0.2742181, -0.28442237, 0.10912734, -0.21963592, 0.083653465, 0.048770633, -0.18230115, -0.06453207, -0.10030546, 0.37115324, -0.25755426, 0.47281, 0.198299, -0.089525275, 0.35297704, 0.17367408, 0.16150565, -0.4351185, -0.23930603, 0.35909438, 0.21680863, 0.065698825, 0.15574208, -0.29903993, 0.042042438, -0.07170534, -0.091918215, -0.18651274, -0.21176983, -0.20022748, 0.12739302, 0.103377916, -0.3700032, -0.3480567, -0.12430666, 0.25726968, 0.28418228, -0.3213473, 0.3663092, 0.30462873, -0.40487748, -0.2058567, 0.076883055, 0.21683073, 0.27712762, 0.16515265, 0.2146851, -0.40438467, 0.3504605, 0.28215384, -0.43635327, -0.12969708, -0.23890431, -0.070188686, -0.33001116, -0.14820679, -0.28889892, -0.09223269, 0.2517477, -0.23223178}, 
{0.4072661, 0.32320648, -0.090069905, -0.3202471, -0.11754725, -0.048301466, -0.013458172, 0.36583534, -0.26100174, -0.35132694, -0.06020757, 0.19379056, 0.1463989, 0.10571691, 0.19285111, -0.055857327, -0.15926333, -0.21520655, -0.3390175, -0.37899235, -0.12415311, -0.040728305, 0.20417985, -0.3218176, -0.28471678, -0.12915902, -0.16832575, 0.34466842, 0.13396284, -0.19731925, 0.026890125, 0.19022651, 0.43252388, -0.09247679, -0.19324759, -0.2597306, 0.102132, -0.054950327, -0.039970916, -0.30878666, -0.3293881, -0.15136407, -0.1644028, -0.19442366, -0.07441445, 0.10251348, 0.008549589, -0.350092, -0.0539283, -0.121879816, -0.30164135, 0.07002076, -0.13680233, -0.26034397, 0.17438495, 0.034614272, -0.080726326, 0.12657544, 0.11882356, 0.07252412, -0.12658662, -0.11333322, -0.006111783, 0.050854124}, 
{0.2532145, -0.13131528, -0.03512008, -0.1121208, 0.12040081, -0.04601729, 0.20209955, 0.2117654, 0.120304585, 0.18872139, 0.18624449, 0.003925244, -0.102606945, -0.08393331, 0.08062615, -0.08426744, -0.1241025, 0.023327302, 0.12846994, 0.14604917, -0.219638, 0.283494, 0.29357278, 0.11587492, 0.20232859, 0.09608184, -0.040210847, 0.22898367, -0.027255638, -0.22281344, -0.048713703, 0.20732509, 0.15836047, -0.087473795, 0.0275014, 0.015454723, -0.08709938, 0.07848944, -0.14645357, 0.24978913, -0.19622001, 0.13903758, -0.26810068, 0.21528728, 0.25730145, -0.21271703, -0.19131042, 0.25735086, -0.01656758, 0.13458203, 0.09625196, 0.25774202, 0.22756283, -0.22133923, 0.13982494, 0.04953667, -0.0805019, 0.09841341, 0.28605095, -0.18166932, 0.011154279, 0.13743137, -0.19932353, -0.08287309}, 
{0.041066706, -0.029485675, 0.07353066, 0.14183861, 0.099884644, -0.19330753, 0.13801031, -0.07160843, -0.1822127, -0.20506829, -0.07448298, 0.13158858, -0.107106976, 0.20216006, 0.12743323, -0.011612041, -0.110293806, 0.16162579, -0.17647745, -0.16877832, -0.09091308, 0.11570005, 0.051122338, -0.13009606, 0.1064388, 0.1248733, 0.079356976, 0.0030565052, 0.16883266, -0.15135664, -0.116789706, -0.21270223, 0.0730717, -0.14141822, 0.22090814, -0.081599936, -0.02181259, -0.15177904, -0.1504704, -0.12188284, -0.09348468, 0.14909752, -0.031999595, -0.07787784, -0.13601485, 0.107977286, -0.13117196, 0.10055628, -0.12449073, 0.20470135, 0.088772856, 0.11399491, 0.14424366, 0.13638237, -0.1660904, 0.072105944, 0.061427232, -0.15234026, 0.038433976, -0.015840994, -0.06734218, 0.16565353, 0.060606074, 0.11941565}, 
{-0.27640536, -0.1245541, -0.10328401, 0.17923136, 0.17484891, -0.22682992, 0.30356938, -0.3783506, 0.26743108, 0.3784608, 0.14656009, -0.36074743, -0.19373882, -0.020684712, -0.09256979, 0.23618937, 0.033871327, 0.2121723, 0.05176949, 0.2434467, 0.05069588, -0.28647134, 0.055866383, 0.47521466, -0.035275333, 0.3506858, 0.052392572, -0.018701803, 0.21046935, 0.084498055, 0.09662077, -0.23951547, -0.3816644, -0.10364132, 0.022398055, 0.31198856, -0.40518355, -0.051074766, -0.21435995, 0.19269465, 0.17302033, -0.2691648, 0.05517098, 0.24515952, -0.11696319, -0.035351142, 0.05701608, 0.06303372, 0.40733224, 0.14717376, 0.03228915, -0.29238647, 0.24981925, 0.011673995, -0.3439384, -0.09357172, -0.090591736, -0.3936073, -0.16769758, 0.18285093, -0.14944632, -0.18598859, -0.014209057, -0.00634802}, 
{-0.23951888, -0.08902115, 0.06366448, 0.12965333, -0.1916993, 0.14536558, -0.22635351, -0.07235077, 0.15939565, -0.22193559, -0.23143978, -0.06737815, -0.21569072, 0.10608785, 0.1478493, 0.20869456, 0.1827038, -0.11916277, 0.03622156, 0.126948, 0.1754935, 0.19071987, 0.102888964, 0.14015763, -0.020332554, -0.119560346, -0.16040525, -0.056961663, 0.21088581, 0.08208365, 0.18502186, 0.06195679, -0.0977573, 0.091167815, -0.03786844, -0.0115070185, -0.1681678, -0.17219083, -0.07493828, -0.031753574, 0.2652576, -0.05505478, 0.08205186, 0.086630926, -0.032330424, -0.056107443, 0.043170214, 0.013637438, 0.16282135, 0.12345561, 0.24485281, -0.0936709, -0.03761599, 0.19720908, -0.045961987, -0.11630375, -0.09584123, -0.15155207, -0.15754887, -0.07456621, -0.15740854, 0.03638434, -0.11961691, 0.08847075}, 
{-0.2475789, -0.008386096, 0.21725464, 0.26724845, -0.118124776, -0.07562344, 0.14476843, -0.020101367, 0.26991647, 0.11009784, -0.05721288, -0.0862141, -0.2144356, 0.1225217, -0.06812, 0.017225394, -0.006151448, -0.016791485, 0.2604399, 0.23109664, 0.02403861, -0.31008935, -0.261798, 0.41288203, 0.06363194, 0.11687809, 0.24244548, -0.27249056, -0.117833935, -0.06317648, -0.064606555, -0.0046549197, -0.01539359, 0.046917573, 0.098827034, 0.224538, -0.17620562, 0.06957129, -0.067816116, 0.32862622, 0.37125492, -0.20853731, 0.30675864, 0.20926625, -0.18974611, -0.47711298, 0.38879478, 0.35421553, 0.28810468, 0.1411887, 0.13986208, -0.102583796, 0.2639799, 0.24757506, -0.18859269, -0.23973733, -0.32557985, 0.0006808906, -0.2773371, -0.1286532, -0.10708476, 0.18821041, 0.21706711, -0.23474558}, 
{-0.067866184, -0.08940754, 0.1549597, 0.18614365, 0.050232477, 0.18783091, 0.062752835, 0.0689667, 0.059154797, -0.0021077772, 0.0103151845, -0.068573795, -0.08265268, 0.12997296, 0.12490859, 0.2767305, 0.020830235, 0.019368302, -0.16064395, 0.15872204, -0.032784496, -0.17726359, 0.070782736, -0.13646452, 0.2095026, 0.12301905, -0.16594924, 0.118720025, 0.06975563, 0.23436627, 0.09082605, -0.050020542, 0.2020586, -0.19519463, -0.27451596, 0.11967674, 0.058429834, -0.11595586, -0.048996534, 0.11710916, -0.14025114, 0.10297614, -0.05497783, 0.18137288, -0.20023915, 0.09582675, 0.14766333, -0.18732615, -0.036322914, -0.06300657, 0.02127584, -0.086123236, -0.049397442, 0.25880578, 0.14524898, 0.17862946, -0.013594749, -0.118007354, 0.00922378, -0.23115037, -0.24840455, -0.16491793, 0.2821778, -0.19608489}, 
{0.15450162, -0.09641819, -0.19902581, -0.07777822, 0.023348559, 0.08051079, -0.024353087, 0.07377781, 0.14925729, -0.118939035, 0.12465974, 0.24803083, 0.02751, 0.062296465, 0.08152388, -0.07424144, 0.03797058, -0.15995157, 0.049616206, 0.050226238, 0.05572025, 0.18881899, 0.12624714, -0.18863852, 0.046108704, -0.19236225, 0.11157216, 0.13899845, 0.0014056076, -0.14318085, 0.1277087, 0.06852024, 0.20771153, 0.0005582607, 0.020596154, -0.009081327, 0.1314312, -0.028826565, -0.015083592, 0.22104217, -0.025605204, 0.040316567, -0.036003053, 0.1612447, 0.14658587, 0.1508506, 0.14606449, 0.05742433, 0.046977073, 0.0006319161, 0.08360108, 0.10347801, 0.046428245, -0.16641653, -0.079204984, -0.05436562, 0.15871498, -0.046038095, 0.25498968, -0.032528307, -0.10745311, 0.0034003127, -0.13533147, -0.04193616}, 
{0.23406582, 0.2914505, -0.20648025, 0.20792648, -0.008946686, 0.13202336, 0.13749632, 0.051561285, -0.018072354, 0.031080823, -0.055640426, 0.2169454, 0.05998852, 0.19067244, -0.2268605, -0.003079648, 0.16066572, 0.12398061, -0.103675224, 0.17902406, -0.111603774, -0.107160844, -0.046574812, -0.125604, 0.0514431, 0.11246878, 0.10344852, 0.01998949, 0.09938642, 0.037923086, -0.05664601, 0.22187436, 0.008278292, -0.02944474, -0.2099675, 0.07652812, 0.11852956, -0.024132725, -0.22752629, 0.012807916, -0.095727414, 0.04383951, -0.23732774, 0.1106635, -0.14276452, -0.021357058, -0.1349814, -0.08956747, -0.13004921, -0.04678652, -0.110071935, -0.055535264, 0.12750092, 0.091762275, 0.05863174, 0.14549157, -0.1082591, -0.1557881, -0.1484902, -0.16622251, -0.22084643, -0.08733385, -0.13740626, -0.044638563}, 
{0.080479406, 0.32643712, -0.12348685, 0.04491745, 0.11587345, 0.239739, 0.11310901, 0.25827122, 0.061135363, -0.043419495, -0.15104169, 0.13227358, -0.08045027, 0.21976444, -0.066987656, -0.30525383, 0.020758536, -0.16458558, 0.26958516, -0.3093597, -0.1826583, 0.09052296, 0.06471699, 0.17724168, 0.09967227, -0.08507317, -0.043684375, 0.24628562, -0.03647836, -0.21296455, -0.3388271, 0.19600989, 0.32778072, -0.067543864, 0.10616412, 0.017265344, 0.09807868, 0.25174055, 0.10809812, 0.14080591, 0.03158273, 0.0832458, -0.05168623, -0.068370715, 0.11072446, 0.31506336, -0.27480337, 0.16508695, -0.0016910902, -0.14850752, -0.25233427, 0.18248425, 0.25001305, 0.040414147, 0.101545304, 0.050344206, 0.111549154, 0.290392, 0.14381793, -0.26079163, 0.31663975, -0.32068416, -0.017239371, -0.11372625}, 
{0.17925358, 0.2236971, -0.079237394, -0.16862229, -0.12518062, 0.14904037, 0.15776548, 0.045911126, 0.3241927, 0.2514548, -0.058237676, 0.022872085, 0.25764075, -0.074716635, 0.19950801, 0.015959052, -0.06841492, 0.051384583, -0.005138035, -0.26960564, -0.08216027, -0.044544462, 0.02627617, 0.049983628, 0.32149485, 0.047394995, 0.040899575, 0.011385521, 0.24126127, -0.1690561, -0.25399858, -0.111815795, 0.33109373, 0.1879304, -0.17325826, -0.21452916, -0.11069245, -0.05948133, -0.14656882, 0.13882267, 0.038707484, 0.08371514, 0.012063127, 0.07523073, 0.24520011, 0.22329596, -0.22778676, 0.28695074, -0.0061796876, 0.28191498, -0.08432397, 0.13393416, 0.050991576, 0.15319686, 0.30522698, 0.015180618, 0.059868228, 0.039790884, -0.010744417, -0.027260805, 0.13639364, -0.33500618, 0.114183225, 0.03720113}, 
{-0.26150393, -0.12792002, 0.123720236, 0.17423093, 0.11291189, -0.13565959, 0.102178924, -0.3903936, 0.30246532, 0.0986984, 0.15433235, -0.37818864, -0.13869025, 0.07054374, -0.043454498, 0.20595127, 0.057081368, -0.12808403, 0.436436, 0.20214768, 0.0048164725, -0.4881988, -0.013952283, 0.425891, 0.28116876, 0.20966507, 0.2401263, -0.014253224, -0.13782461, -0.004244577, 0.075025156, -0.30449384, -0.13114554, 0.032539517, 0.082415745, 0.3806566, -0.20902747, -0.15308306, 0.09440589, 0.18494017, 0.034941107, -0.39361835, 0.038977746, 0.26381314, -0.14372334, -0.37335587, 0.15482503, 0.37134436, 0.14631136, 0.2772131, 0.08073271, -0.2104081, 0.34969962, 0.22419836, -0.35071677, -0.12278562, -0.25886738, -0.42706218, -0.21831577, -0.17780492, 0.057082117, 0.18537922, 0.038746126, -0.17853995}, 
{-0.064780585, 0.0234108, -0.16479541, -0.1806456, 0.112690315, -0.13210577, 0.10317194, 0.044067442, 0.05980143, 0.053404067, -0.047899097, 0.24108513, 0.25100315, -0.17232959, -0.22922635, -0.07331158, -0.03844596, -0.21314356, -0.0315187, -0.13889988, -0.068867944, 0.107627265, -0.051093087, 0.16072519, 0.14475983, -0.24163978, 0.06281588, 0.108275786, -0.09793201, -0.08065928, 0.023161834, -0.008646637, 0.049150817, -0.13098896, 0.04336605, -0.041966055, 0.15447938, -0.09154699, -0.1967868, 0.18886292, -0.30424005, 0.2821238, -0.20498526, -0.02772489, 0.078871615, -0.10208521, 0.031522956, -0.20207018, -0.1369218, 0.20880875, 0.025459277, 0.0153096, 0.082924135, 0.014715737, 0.21722317, 0.1535821, 0.05495239, 0.16421282, 0.04094482, -0.124639794, -0.14953928, -0.08176435, -0.1508124, 0.16100274}, 
{0.26773807, 0.10132882, -0.11428047, -0.20917633, -0.016040264, 0.07760276, -0.3241712, 0.32486534, -0.2937029, -0.060204636, 0.2869232, 0.14262666, 0.3634813, 0.05145235, -0.037507713, -0.3245635, -0.15433998, -0.32534763, -0.28941447, -0.21674961, -0.2007613, 0.35331976, 0.37153894, 0.059663586, -0.25135848, -0.37021896, -0.22769602, 0.17430891, -0.17095925, -0.11778097, -0.130805, 0.10009972, 0.24991003, -0.12163829, -0.017933948, -0.47055578, -0.013918123, 0.11269492, 0.10989489, 0.13580537, -0.30003756, 0.09895418, -0.2710786, -0.18565203, -0.022595542, 0.34133616, -0.13907295, 0.049697272, -0.30284888, -0.20644435, -0.20288812, 0.123307206, -0.25498003, -0.14103998, 0.3725407, 0.2717337, 0.37909997, 0.12453542, 0.10327357, -0.2126137, 0.26881024, -0.36059108, -0.10911859, -0.07496427}, 
{0.2429081, 0.23332876, 0.018755702, 0.025816202, 0.100690685, -0.07843257, -0.030238006, 0.17102827, 0.02629782, -0.03130437, 0.025135748, -0.0388279, -0.0623204, 0.056704666, 0.10271222, -0.03924007, -0.042064186, -0.19574998, -0.057481766, -0.14648226, 0.13422394, 0.15408562, 0.1842734, -0.27041796, 0.048697095, 0.08655295, 0.19015218, 0.08621441, -0.19676054, -0.10188667, 0.07262681, 0.07100964, 0.21424109, -0.14081022, -0.10170887, -0.049593676, -0.07050543, -0.026272437, -0.02822551, -0.0014291435, -0.22435361, 0.26176605, 0.12703247, -0.12922959, 0.23766232, 0.027374621, 0.15436022, 0.062215738, 0.17180662, -0.12263273, -0.10751905, -0.018399535, -0.094465934, 0.045897763, 0.0033377563, 0.12594119, 0.07807952, 0.21470708, 0.2505902, -0.0788063, -0.09995181, -0.043816112, 0.17075758, 0.03192507}, 
{-0.31012338, -0.1521499, 0.33606037, 0.10828991, 0.1494816, 0.04666232, -0.20574613, -0.21031421, -0.1205711, 0.09776054, 0.06604064, -0.007308591, -0.17108901, -0.09326669, -0.09286235, 0.21645388, -0.0017839709, 0.21888064, -0.2516672, 0.023422616, 0.012323636, -0.123539545, -0.2652387, 0.10271651, -0.019726109, 0.14511126, -0.13502198, 0.009554451, -0.096423455, 0.053601325, 0.02193396, 0.09521703, -0.2577473, -0.15449268, -0.036474306, 0.14006397, -0.23916928, -0.21718404, 0.15249686, -0.15995488, 0.08514763, -0.054193866, 0.044106636, -0.24091254, -0.044356216, 0.069772966, 0.2287244, 0.019574877, 0.18981689, 0.056596413, 0.13246445, -0.010730095, -0.16900307, 0.07228396, -0.1323747, -0.09028389, -0.2038916, -0.010514733, -0.18463151, -0.0032848627, -0.102737725, -0.08348847, 0.07197219, -0.147601}, 
{-0.122100376, 0.0045636958, 0.00050424464, -0.19436641, 6.326752e-05, -0.17488128, 0.009056339, 0.18622452, 0.028677644, 0.09575212, 0.14577726, 0.067247756, 0.06598588, 0.016906394, 0.15637887, 0.20490445, -0.012020526, -0.15362106, -0.19818854, 0.07217748, 0.03721574, 0.16400781, 0.09507141, 0.116162226, -0.16662659, 0.14838807, 0.07243577, -0.22426008, 0.1605816, -0.1141468, -0.07616143, 0.17672007, -0.1724885, -0.07983963, -0.05355143, -0.15490472, -0.01983521, 0.19345354, -0.09765735, -0.016425496, 0.103281535, -0.1862754, -0.07078422, -0.18224464, -0.13845909, -0.14622691, -0.20448506, -0.1308159, -0.14942494, -0.17036961, 0.10311019, 0.019553218, -0.12603769, -0.11618479, -0.18783821, 0.23404695, -0.10756652, 0.1226901, 0.12648682, 0.0027038772, 0.14495772, -0.039155364, 0.08675569, -0.14327386}, 
{-0.08601482, -0.032703314, 0.09182488, -0.17604062, 0.061011877, -0.18992126, -0.2177573, 0.11882881, -0.009315615, -0.09610221, 0.03673646, -0.13026594, 0.19192332, 0.15004955, -0.049092527, -0.17464216, 0.2215181, 0.14070453, -0.012963429, -0.115305185, 0.16141614, -0.0036713667, 0.22853766, 0.011067674, -0.005712908, 0.034099404, -0.16560633, 0.0497522, -0.05384764, 0.18046914, 0.07970813, 0.22377038, 0.048505154, -0.21506514, 0.13502213, 0.14147148, 0.23902994, 0.12883762, -0.023168208, -0.04801248, -0.2090031, -0.095164634, 0.15048167, -0.05645719, -0.1324372, 0.25793958, -0.15766427, -0.036335047, -0.1022898, -0.26245666, -0.14167868, 0.09533329, -0.26420742, -0.15565056, -0.10618385, -0.019477114, 0.17838381, -0.14603348, -0.057456758, -0.08511861, -0.11147624, 0.15310627, 0.031603042, -0.17899485}, 
{0.13225526, 0.25458446, -0.024167547, -0.19135885, -0.037076116, -0.1814109, 0.14037958, 0.10124544, 0.025344726, -0.045623254, 0.03790759, 0.12863508, 0.19785216, -0.033715557, -0.12169074, -0.06837961, -0.26785168, -0.26529625, -0.119373605, -0.15930663, -0.03800364, 0.07674823, 0.23753905, 0.041522708, 0.19601703, -0.24749732, -0.18537825, 0.13564704, -0.010278443, -0.14061412, -0.2965453, 0.22122006, 0.02778002, 0.0093463175, 0.10680777, -0.20078517, 0.10786019, -0.017078832, -0.17612845, -0.116081834, -0.1284929, 0.22662494, -0.30426192, 0.11264165, 0.14516188, 0.35679257, -0.17023942, -0.13142711, 0.051738847, 0.12325966, -0.15030687, 0.17879751, 0.25546473, -0.23256937, 0.09084343, 0.33173525, 0.18751627, -0.045565616, 0.19813932, 0.038494125, -0.05238023, -0.21335597, -0.16655314, 0.009821195}, 
{-0.26780602, -0.266336, 0.20860676, 0.049830645, -0.13993843, -0.031298608, 0.13837925, -0.0025814075, 0.21160944, 0.2871246, -0.080477916, -0.2126656, -0.025147593, 0.008302535, -0.09619188, 0.20960784, 0.04479407, -0.035081953, 0.0060242033, -0.06769176, -0.114553116, -0.039368797, -0.30531108, 0.27578124, 0.08903253, 0.10637613, -0.14965773, -0.057042886, 0.2263155, 0.016461316, 0.047236037, -0.28227428, -0.29804602, 0.090333596, -0.18787001, 0.22044306, -0.29606938, 0.028056553, 0.0035740118, 0.239844, 0.16052477, -0.073449165, 0.11105759, -0.037332166, -0.27178687, 0.01432849, 0.042202696, -0.08154413, 0.210731, -0.10936455, 0.083717756, -0.23032162, 0.13508195, 0.12492255, 0.060142912, -0.040534962, -0.14823456, -0.0045984704, -0.21811911, -0.09931767, 0.023490367, 0.22136723, 0.1233101, 0.079387635}, 
{-0.015816007, 0.39226505, -0.18568401, -0.23525667, 0.103481665, 0.50163925, -0.18729182, 0.034225084, -0.0898547, -0.10491, 0.33856922, 0.41687095, 0.0888962, -0.0005871226, -0.19162391, -0.17677823, -0.24626143, -0.25656125, 0.1473067, -0.36963698, -0.05763667, 0.03556235, 0.19175301, 0.0174257, 0.014586456, -0.442079, -0.056482814, -0.018216746, 0.07884761, -0.28077468, -0.26343364, 0.3299042, 0.37825903, -0.15102896, 0.024826638, -0.23710173, 0.0047993325, 0.08928226, -0.03652854, -0.050799146, -0.23359308, 0.36985093, -0.0040624784, -0.2544489, 0.18222137, 0.061095603, -0.06763104, -0.01305706, -0.39641124, -0.13382135, -0.2661802, 0.10598443, -0.3510604, -0.38162777, -0.009962191, 0.18225339, 0.06402309, 0.21606952, 0.1928076, -0.17524989, 0.08505368, -0.3023202, -0.21428254, 0.029318426}, 
{0.31806862, 0.13511631, -0.17569827, -0.07298928, -0.08781066, -0.01420614, -0.033520013, 0.1966528, -0.028035788, -0.18235846, -0.0042507583, -0.06073261, 0.08341718, -0.12862523, 0.054017577, -0.3036144, -0.04126513, -0.17407447, -0.3707382, -0.16595775, -2.0131469e-05, 0.18996333, -0.047924936, 0.012669322, -0.12549673, -0.1825806, 0.08578708, 0.03642792, -0.07845598, 0.0059601804, 0.02212578, 0.21179466, 0.38420698, -0.0730194, 0.06510157, 0.04467042, 0.048991553, -0.05729746, 0.1484946, -0.09382272, -0.06050628, -0.104132466, 0.03205083, -0.18183644, -0.03910283, 0.20204058, -0.3108216, -0.22902253, -0.11859855, -0.22377987, 0.025347782, -0.13748506, 0.037858993, -0.14979538, 0.12353926, 0.36256, 0.064233534, -0.16500795, -0.29406738, 0.15744628, -0.29028502, -0.07982092, -0.09771331, -0.019327968}, 
{0.1857354, 0.2642621, -0.11451179, 0.09553039, 0.0022673772, -0.08864498, 0.2243818, 0.07346279, 0.33626375, 0.012585826, 0.18799417, 0.089667626, 0.16728435, 0.1718418, -0.08650682, -0.2774044, -0.041502565, -0.3317537, 0.13977212, 0.005292572, -0.06943917, 0.16549203, 0.29305702, -0.058937848, 0.27964318, -0.25443923, 0.1072467, 0.24996242, 0.20043543, -0.15811886, -0.1374555, 0.321304, 0.3182301, -0.099776275, -0.08731669, -0.2504304, 0.10238037, 0.08057839, -0.15823893, 0.3540807, 0.013605122, 0.26780936, -0.10946719, 0.46099824, 0.13514522, -0.043418303, -0.2905276, 0.21780224, -0.3163269, 0.13583058, -0.03967023, 0.3008642, 0.117369734, -0.28943676, 0.12576503, -0.010248912, 0.31849906, -0.03678512, 0.28317702, 0.033943906, 0.14540188, -0.28978786, -0.25383225, 0.17317468}, 
{-0.112129435, 0.071023144, 0.1389965, -0.124786764, -0.08354422, -0.12004039, -0.029882064, -0.18046185, -0.1893529, -0.09315882, 0.014079067, -0.061769117, 0.19325975, 0.07708575, -0.16169952, 0.22271867, 0.072287194, -0.042353556, -0.19347517, 0.1539213, -0.18404377, -0.029839348, 0.16559215, 0.15117052, -0.28137732, 0.059464555, -0.07034183, -0.09438803, -0.16470781, -0.060380623, 0.24951391, 0.075855695, 0.1831029, -0.040364165, 0.02339481, 0.022962026, -0.15867457, -0.06691428, -0.041702446, -0.062311582, 0.08838433, 0.021012751, 0.04223235, -0.22322233, -0.017157435, -0.097694226, -0.024796335, 0.12957856, -0.045517337, 0.019641964, 0.14868821, 0.015247073, -0.2667137, 0.14498162, 0.0049866727, 0.14221676, -0.10472206, -0.016658489, 0.1236264, 0.027118303, 0.13915108, 0.14344673, -0.06925922, 0.096485205}, 
{0.0033327101, -0.09485097, -0.15609041, 0.14773108, -0.05262162, -0.1189213, -0.069533035, 0.09709237, -0.027742447, 0.22748719, -0.011198961, 0.28656274, -0.08305766, 0.106027335, 0.061462, 0.22907083, 0.17797612, 0.19420008, 0.26286933, 0.05752675, -0.08206327, -0.06289625, 0.0718952, -0.073669694, 0.27716285, 0.06753269, 0.13714896, -0.07861861, 0.22407055, 0.20093139, 0.1724156, -0.15502986, -0.076231785, 0.06487559, -0.0558613, 0.021282302, -0.12819147, -0.22105452, -0.07963193, 0.28497794, 0.064089306, -0.15308952, 0.23692513, 0.30696845, -0.027318502, 0.13925162, 0.19157402, 0.24044377, -0.045764264, 0.28650725, 0.23062406, 0.045129787, 0.10662036, -0.0347527, 0.020610526, -0.19235356, -0.11304378, 0.00016192919, 0.1528976, -0.25207052, -0.13044594, -0.13075036, -0.010134681, 0.0923646}, 
{-0.1434888, -0.015923148, 0.07714127, 0.15293877, 0.02455011, 0.058161926, 0.13163316, -0.233922, -0.042481974, 0.19824961, -0.19774988, -0.011471037, -0.060652934, 0.18473826, 0.12999618, 0.20359033, 0.15727836, -0.0042172256, 0.3044094, 0.068180874, 0.112200454, -0.31025416, -0.1124133, 0.27417114, 0.019949121, 0.21695983, 0.17967317, 0.08810278, 0.2973847, 0.10224303, 0.12917805, -0.16118498, 0.06149411, 0.06675568, -0.23228844, 0.13452634, 0.19851908, -0.30848733, -0.082958296, 0.020914942, 0.416285, 0.08134986, 0.21256258, 0.12696926, -0.3154926, 0.13076858, 0.119545475, 0.17770386, 0.2878072, 0.10031099, 0.35243708, -0.09726828, 0.12798624, 0.04480984, -0.027498387, -0.19557092, -0.29185978, -0.030129502, -0.021272914, -0.10904514, -0.081320405, 0.1739413, 0.10099145, -0.01401379}, 
{-0.06595461, 0.13124745, -0.05253499, 0.26252216, -0.20152055, 0.108463205, 0.109021924, 0.13825507, -0.22801653, -0.124034286, 0.12081924, -0.09148792, -0.047530677, -0.23298445, 0.051832523, 0.15769525, 0.032291062, 0.17910676, 0.06800574, -0.009706849, 0.16663189, -0.21058942, -0.115588285, -0.15618159, -0.095147625, 0.0071428777, 0.03033853, -0.11303783, 0.08091074, 0.25696608, 0.24271506, -0.1276719, -0.09432212, 0.025878487, 0.18250929, -0.013210455, -0.0077787396, -0.22643025, -0.21461782, -0.084953435, 0.25937426, -0.03345626, -0.050698806, -0.10746907, -0.16992532, -0.17685005, 0.073504984, -0.028500369, 0.1774368, -0.16769087, 0.232101, -0.10253971, -0.18313493, -0.058470994, -0.25325456, 0.13159809, 0.024499048, -0.07597408, 0.024631942, -0.077525504, 0.20380315, 0.08457594, 0.15640801, -0.083791316}, 
{-0.32839647, -0.052936967, -0.0072155693, -0.06351548, 0.1522197, -0.023692107, 0.30509672, -0.10013276, 0.0049644667, 0.3415022, -0.08421864, -0.18404953, 0.038735375, 0.20583811, 0.029295888, 0.13505304, -0.02139409, 0.11351309, 0.08921381, 0.30030805, -0.0076467604, -0.060762957, -0.17863515, -0.0038020737, 0.2598515, 0.31709677, 0.058512248, -0.21183561, -0.1557457, 0.30553037, 0.17020811, -0.30324626, -0.2838929, -0.11704872, -0.24561657, 0.17246701, -0.27429256, -0.23885787, 0.1367238, -0.029517652, -0.077398375, -0.21943776, 0.26676795, 0.116979055, -0.19981447, 0.048122667, 0.14293864, 0.14727853, 0.075192295, 0.25371864, 0.12316312, 0.06951203, 0.29832405, 0.23424596, -0.17850251, -0.3290334, 0.0046918825, -0.06747868, 0.09537776, -0.08457783, 0.21157941, 0.018665725, 0.15981402, -0.023859601}, 
{0.22101489, 0.11404287, -0.25418416, -0.048594322, 0.2100728, -0.15630218, 0.20070669, -0.09854536, 0.12964672, -0.10576575, -0.33610836, 0.22495653, -0.1298079, -0.11362211, 0.17521653, -0.0047748853, 0.1942324, -0.14122507, -0.007705962, 0.044010796, 0.012300201, 0.039243367, -0.09030051, 0.12245767, 0.012156962, -0.11909617, -0.17559181, 0.13896342, -0.08588416, -0.1388944, 0.10930179, 0.02450269, 0.1389732, 0.05509992, -0.2866347, -0.18450303, 0.110056885, 0.061302427, 0.19056146, 0.15925117, 0.18410465, 0.022429572, 0.10031993, 0.16954824, 0.042162057, 0.008705921, -0.21167803, 0.2911338, -0.18409467, 0.25426763, -0.02247673, 0.11844718, 0.064079195, -0.11849955, 0.073380835, 0.20465761, -0.04313539, 0.2539186, 0.13449448, 0.041133095, -0.22140886, -0.06652877, 0.04692974, -0.05607997}, 
{-0.13230188, -0.091604225, 0.025417015, 0.037590798, 0.17648162, 0.15577456, 0.060597133, -0.05696305, 0.1291602, 0.14207076, 0.1554855, 0.039720494, 0.24225098, 0.009722335, -0.040366687, -0.2144559, -0.06702646, 0.0029122613, 0.12747909, 0.012925402, -0.06800796, 0.17508736, 0.1728983, 0.09302869, 0.114510834, -0.123685285, 0.21203087, 0.20536178, -0.04544391, -0.058292333, -0.12656122, 0.17804947, 0.19069642, -0.06395086, 0.19413155, 0.13616975, 0.24867348, -0.028085345, -0.15911697, -0.14250982, -0.027047358, 0.1758052, 0.022523956, -0.13973391, -0.021970175, -0.22670309, -0.13359977, -0.14457235, -0.2287378, 0.037293702, -0.19561502, 0.1964667, 0.1542642, 0.1115123, 0.024697574, -0.0030097922, 0.20208645, 0.15372534, 0.16674423, -0.06618059, 0.23414792, 0.14701037, -0.11252489, -0.19649579}, 
{-0.2073574, -0.08719768, 0.10757035, 0.17484373, 0.11225306, -0.06349682, 0.16326281, -0.017324777, -0.09998315, 0.13886553, 0.13740209, -0.17072885, 0.07154517, -0.13886717, -0.14979124, 0.21602751, 0.1913841, -0.1303853, -0.10871832, -0.062811516, 0.11384914, -0.018851701, -0.21529794, 0.10774533, -0.021553705, 0.14663903, 0.26321527, -0.10840438, 0.011246203, -0.043024525, -0.08663059, -0.15586546, -0.38986042, -0.10492617, 0.04892304, 0.22694056, -0.13176632, -0.15305214, -0.14243194, -0.07569038, 0.064110465, -0.22985433, 0.0922393, -0.27889723, -0.32133624, 0.08251541, -0.020898642, -0.1796749, 0.1421997, -0.06639182, 0.20637184, -0.07521636, 0.04186093, 0.14164443, 0.020965017, -0.15757671, 0.04561901, -0.21520811, -0.011996404, -0.043327738, -0.07587869, 0.15700838, -0.067709774, -0.010662834}, 
{-0.016589632, -0.07645005, 0.07984971, -0.01973181, 0.057082415, 0.23116279, 0.007936, 0.23835379, 0.22499451, -0.069249175, 0.14851935, -0.12413898, 0.24161613, 0.21573964, -0.22976668, -0.016618416, 0.19308887, -0.17449106, -0.10454017, -0.0070473333, -0.12061242, -0.04136435, 0.15937291, 0.23148459, -0.13948673, -0.0466892, -0.044607427, -0.05866045, -0.13422386, -0.04561766, -0.10644812, -0.09676744, -0.012126552, -0.0315668, -0.17070492, -0.049607977, 0.3030424, 0.17209467, -0.14045575, -0.20267545, 0.010677542, 0.06809711, 0.016612869, 0.11241427, 0.29333198, 0.22440325, -0.046009514, -0.19903697, 0.1215451, -0.09151251, -0.252435, 0.07298578, 0.008962249, -0.21688007, 0.13110214, -0.024921505, -0.066291586, 0.095512085, 0.044654574, -0.22317778, -0.11305362, -0.20762397, -0.04453636, -0.23771957}, 
{-0.10004703, -0.07082841, -0.08338601, -0.051115997, 0.13090314, 0.17276025, 0.1939241, -0.058531094, 0.13893315, -0.14757267, 0.17451951, 0.04021252, -0.037440185, -0.1477998, 0.18313977, -0.03240519, -0.08522588, -0.04911878, -0.0022066045, 0.0375969, -0.120128855, 0.1731766, 0.18180533, 0.14880084, -0.048297197, -0.03314157, 0.032012157, 0.22613987, 0.25930104, 0.04655608, 0.180432, 0.06334483, -0.1520713, -0.20799907, -0.015801463, -0.000881757, -0.0703931, -0.060052138, 0.10722543, 0.063742414, 0.0115974555, 0.09226723, -0.20701115, 0.09045107, -0.1095974, -0.05152245, -0.044111516, 0.14988557, -0.018383022, 0.0792576, 0.08447925, -0.08395075, -0.010347616, -0.042021547, -0.07224039, -0.02383462, 0.12450607, 0.10505415, -0.17890163, -0.07321246, 0.21195345, 0.14788647, -0.15777354, -0.07783775}, 
{0.0768475, 0.44590256, -0.11512371, -0.23056957, 0.034012873, 0.2547416, 0.19885673, 0.10411395, 0.17438501, -0.020091457, 0.3486477, 0.3038325, 0.26865688, -0.08570606, -0.15402836, -0.34894565, -0.2648002, -0.089700095, -0.25445038, -0.1742915, -0.010622183, 0.36253726, -0.004791106, -0.21049817, 0.20433727, -0.31551537, 0.15412855, 0.031261157, -0.18201469, -0.20603703, -0.37645772, 0.116842695, -0.0163998, 0.11403288, 0.20155747, -0.12040598, 0.23376669, 0.20604643, -0.08989943, 0.17876624, -0.3980505, 0.3950693, -0.30621055, 0.10112002, 0.115389444, -0.19134034, -0.123229936, 0.16300415, -0.38613787, 0.14121115, -0.19565587, 0.37921998, -0.0812406, -0.406217, 0.17435157, 0.19664235, 0.21336111, 0.07338151, -0.034719624, 0.051851682, 0.12144057, -0.3257785, -0.29671684, 0.12644741}, 
{0.13129549, 0.24867211, -0.007809078, -0.088169284, 0.122494176, 0.0726952, -0.2231631, 0.08133068, -0.016151065, 0.17516299, 0.016220294, -0.031813376, 0.039413873, -0.17199875, 0.17646013, -0.24809632, -0.06724469, -0.027806219, 0.05576984, -0.08357755, -0.20282029, 0.04333873, 0.24169339, -0.21073319, -0.15373036, 0.044813678, 0.15848978, 0.24221164, 0.098328434, 0.02656379, 0.08193256, -0.105701044, 0.2865269, -0.17750934, -0.034731302, -0.031485908, 0.22000045, -0.09783384, -0.003250417, 0.08073499, -0.101587266, 0.16686064, -0.26947534, 0.05596256, 0.086748615, 0.2893183, 0.050340097, -0.15467116, -0.19272314, 0.027977545, -0.26432467, 0.041743837, -0.07659583, -0.16900161, 0.022061331, 0.114561595, 0.1372592, -0.13581537, 0.08895666, -0.024747174, 0.25561932, -0.04458251, -0.20077021, -0.014555136}, 
{0.18558025, 0.20679148, -0.52636546, -0.41151398, 0.055699192, 0.16762291, -0.14380974, 0.11317109, -0.094689794, -0.06843642, 0.016734622, 0.13700275, 0.36855575, -0.09277338, 0.19597977, -0.32270098, -0.33467025, -0.08587977, -0.19263868, -0.04508034, -0.1543139, 0.16212536, 0.08268904, -0.18104997, 0.10719018, -0.1628364, 0.24765895, 0.3137032, 0.1892502, -0.27477467, -0.3265058, 0.16010973, 0.35103068, -0.031583846, 0.3703643, -0.15171272, 0.14379372, -0.049270336, 0.1089125, -0.022066608, -0.460329, 0.12947091, -0.29671255, -0.24086179, 0.010886334, 0.4289733, -0.5329558, -0.14259218, -0.29922688, -0.19036517, -0.539619, 0.11022005, 0.050227206, -0.45851445, 0.41322568, 0.27001122, 0.43381593, 0.09354483, 0.034681223, 0.11960184, -0.008157425, -0.14394647, -0.4290844, 0.044300754}, 
{-0.24724838, 0.0017399992, -0.01588386, 0.30501315, 0.2781057, 0.18214278, 0.20708765, -0.09000537, 0.16122833, 0.17771092, -0.1163624, -0.10198938, -0.022518538, 0.17158522, -0.19240876, 0.32328987, 0.23009956, -0.044288177, 0.1604879, 0.124346785, -0.21459953, -0.28481382, -0.22773789, 0.33058688, -0.019100063, 0.19213204, -0.007140238, -0.034633085, -0.19415587, 0.184907, -0.11037915, -0.06280581, -0.18132865, -0.15666842, -0.025378857, 0.18829378, -0.0044685225, -0.00819293, -0.08658646, -0.037274335, 0.08324816, -0.06445731, 0.14518638, 0.26975676, -0.36821473, -0.07703369, 0.2049168, 0.3759457, 0.29910514, 0.30430582, -0.052436627, -0.23155624, 0.31406823, 0.32640293, -0.1543326, 0.11676886, -0.34068018, -0.40065408, -0.11227087, 0.11002865, 0.03792266, -0.23445475, 0.18573844, -0.1592051}, 
{0.067406334, 0.21095215, 0.019801479, 0.08702856, -0.0024991443, -0.012646996, -0.04819235, 0.00803283, -0.2081425, 0.11774574, 0.09634387, -0.19233173, 0.09917699, 0.17916659, -0.07680037, -0.22174989, -0.23260331, 0.12666848, 0.09202445, 0.19864048, -0.19254155, 0.15045944, 0.028859692, -0.047083553, 0.17504516, 0.0732807, 0.024119334, 0.020394474, 0.16747618, 0.0025941199, 0.047737423, 0.072645225, -0.030901155, -0.12581846, -0.11140375, 0.20438644, 0.18314138, 0.04480208, 0.00904201, -0.18540183, -0.14162096, 0.2102888, -0.23617256, -0.0015392965, -0.18069991, 0.3115138, 0.16894469, 0.02216348, 0.18372707, 0.16301481, -0.04105851, -0.16625687, 0.15090668, 0.14469774, 0.10332237, 0.061801996, 0.023110524, 0.06786509, 0.23411857, -0.11025246, -0.0688082, -0.18026735, 0.14222752, 0.1584488}, 
{-0.083969645, -0.25529933, 0.14104834, 0.25423953, 0.046686675, -0.08865181, 0.1742027, -0.36537194, 0.033290245, 0.052496526, 0.15663382, -0.17511502, -0.21181816, 0.28847107, 0.10212612, 0.13855274, 0.123147085, 0.059393678, 0.24589512, 0.0019174486, -0.18150094, -0.35740176, -0.32400346, 0.10647084, 0.29088902, 0.030247461, -8.314685e-05, -0.002353088, -0.23899287, -0.12473853, -0.24461085, -0.03600448, -0.24361236, -0.2121558, -0.14183828, 0.122621216, 0.015359776, -0.25332037, -0.04605073, 0.1824984, 0.3286257, -0.27929664, 0.19821823, 0.41283324, -0.27658737, -0.29800358, 0.11482878, 0.1311599, 0.075333886, 0.32161382, -0.14488433, -0.14320306, 0.2510798, 0.012093966, -0.384757, 0.06689734, -0.37445366, -0.089753814, -0.18569513, -0.06857525, -0.11389469, -0.07739507, 0.10879635, 0.0029563087}, 
{0.26184765, 0.2576201, -0.3724735, 0.015134844, 0.07796226, 0.20481718, 0.12114015, 0.16729166, 0.2484036, 0.05031343, -0.0696975, 0.31181076, 0.07133442, 0.11907002, 0.06602808, -0.20270443, -0.12280112, -0.26832584, 0.24632177, -0.2890708, -0.18154594, 0.3821178, -0.012440264, -0.111955464, 0.12958072, -0.2176537, -0.038459912, 0.41937363, 0.1215919, -0.29745412, -0.33801192, 0.17781858, 0.4395592, 0.20359574, -0.16116816, -0.31895667, -0.011784458, 0.1439434, -0.11016936, 0.033251934, -0.14009725, 0.221209, -0.28731543, 0.0030886019, 0.29221407, 0.23181084, -0.28866488, 0.31881446, -0.33759806, 0.26803625, -0.19899705, 0.36544997, 0.30020797, -0.32629558, 0.27597204, 0.38600424, 0.33436778, 0.4089343, 0.18842538, 0.04544494, -0.25804064, -0.3028322, -0.3619851, -0.09360465}, 
{-0.18208073, -0.097969435, 0.1476073, 0.26774284, -0.05208072, -0.013475258, 0.17479676, -0.2577661, -0.029154707, -0.10494531, 0.1712379, -0.14902122, -0.012179868, 0.11985071, -0.032167263, -0.07070497, 0.13805148, 0.19356145, -0.07572271, 0.06310571, -0.16565783, 0.06489354, -0.29581425, -0.037396837, -0.17848605, 0.020668212, -0.10473983, -0.32291993, 0.10775711, 0.1981055, 0.19176605, -0.28081372, -0.264349, -0.12675807, 0.3104941, 0.2787365, -0.22160293, -0.15968227, 0.20171534, 0.05329691, 0.22855882, -0.32742864, 0.16663602, -0.13043119, -0.28023893, -0.21895091, 0.2233716, -0.112032644, 0.07382556, -0.020802628, 0.055931296, -0.18682075, 0.013350263, 0.19763674, -0.31442124, 0.20719002, -0.05463834, -0.078535095, 0.030511605, -0.13856684, -0.09490004, -0.08936517, 0.23763236, 0.09378441}, 
{0.13415734, 0.21035968, -0.012785181, 0.080774575, 0.14271596, -0.11115142, -0.0053408616, -0.028116457, -0.035597257, -0.145545, -0.1777322, 0.004140587, 0.20529968, -0.14949624, -0.030701427, -0.0054267114, -0.11967479, 0.13646671, -0.04740837, -0.13125879, 0.050764505, 0.21203543, 0.11247414, -0.16168869, 0.10948514, 0.09754437, -0.08606295, 0.18615666, 0.0018213913, 0.080896, 0.027419416, 0.047864042, 0.22270638, -0.16452129, 0.09478107, 0.19640456, 0.21326451, 0.20649436, -0.03722306, 0.01646661, -0.031808846, -0.069888644, -0.06943127, -0.09052251, -0.046666045, 0.08203895, -0.19246864, -0.11691392, 0.16805649, -0.069220245, 0.06648369, 0.03921093, -0.029622072, -0.16796274, 0.15969503, -0.18150908, 0.08857578, 0.0376476, 0.18886234, -0.030685512, 0.1841168, -0.02659884, 0.11600674, -0.040408425}, 
{-0.15042807, 0.14431596, 0.10403503, -0.031309918, -0.077629805, 0.12938331, 0.09148011, 0.022341313, -0.07352974, -0.027696934, 0.093651384, 0.008212121, -0.011958358, -0.16952083, -0.17356867, 0.19614208, 0.20839344, 0.09874833, -0.09343964, 0.18244107, -0.20502946, -0.15257628, -0.013996025, -0.047261383, -0.23745355, -0.020785753, -0.15097918, -0.0840701, 0.10446972, 0.18627366, -0.028587373, -0.099842094, -0.10304423, -0.1366266, -0.14578281, 0.032094542, 0.12256871, -0.04421366, 0.004922866, -0.11848376, 0.1433757, 0.06986154, -0.17510337, -0.112155035, -0.08191426, 0.102887265, 0.18981814, -0.111923724, 0.13093333, -0.14796683, 0.10956318, 0.12131126, -0.2796482, 0.19925615, 0.2036488, -0.1700389, 0.043613404, -0.09396399, -0.10024401, -0.06712123, 0.17114875, 0.18485907, -0.1075318, 0.06387648}, 
{0.09244879, -0.037635554, 0.15608114, 0.02820379, -0.052575715, 0.13988423, -0.22171342, 0.12753981, -0.12605414, -0.135888, 0.09389674, -0.14640659, 0.018598014, -0.16531187, 0.06404742, -0.15408432, 0.09118053, -0.010580321, -0.16306482, -0.12324714, 0.17139745, -0.1167419, -0.1642416, -0.20188105, -0.19772401, 0.18087076, 0.042034075, -0.09802878, -0.2052573, -0.049939577, -0.10199288, -0.16798213, 0.020902153, -0.18597953, 0.026111355, -0.0076875906, 0.05279825, -0.13461904, 0.09937043, -0.199773, 0.08541988, 0.08154557, -0.14350583, -0.07127197, 0.029672723, -0.1562072, -0.082357585, 0.04055733, -0.10680927, 0.07485108, 0.12679215, 0.17566678, 0.12412952, 0.2136059, 0.047722988, 0.06884214, 0.22529027, 0.16950293, 0.1339863, -0.20818725, 0.1785849, 0.1840953, -0.12003456, 0.06209644}, 
{-0.069129944, -0.14241782, 0.159248, 0.05653854, 0.070238575, -0.17531472, -0.216679, -0.30271187, 0.21897787, 0.29142874, 0.011754759, -0.11782789, -0.2502802, 0.03648073, 0.14805675, 0.052238423, 0.37498167, -0.12930046, 0.24800083, -0.108222306, -0.030219685, -0.03732361, -0.21625945, 0.2759384, 0.2854508, 0.25090298, 0.063185625, -0.24192883, 0.1459307, -0.040100463, 0.08893463, -0.2377222, -0.3112411, -0.06472274, 0.070521325, 0.09960546, -0.058576465, -0.23834257, 0.10347717, 0.29892585, 0.1458728, -0.040974826, 0.03154862, 0.09631122, -0.05383841, -0.040897317, 0.0062647182, 0.2460384, 0.18297274, 0.11819428, 0.04662582, -0.1581575, 0.14974003, 0.26988238, -0.06691299, -0.30298975, -0.26994306, -0.06899795, 0.010309427, -0.03409641, -0.28847125, -0.105704665, 0.3359091, 0.18099433}, 
{-0.262232, -0.40230963, 0.3970353, 0.23504269, 0.48617607, -0.158039, 0.20464127, -0.51740587, 0.43888152, 0.19713017, -0.21897683, -0.40045434, -0.37341526, 0.3698678, -0.20242311, 0.5074663, 0.52739376, 0.36509493, 0.34964085, 0.440982, -0.20433006, -0.18615176, -0.27797875, 0.40400776, 0.47559673, 0.27137667, 0.07476312, -0.14021026, -0.321266, 0.40504324, 0.18758129, -0.20770921, -0.44047567, -0.1487792, -0.09774833, 0.21955943, -0.11295935, -0.53862447, 0.102250375, 0.47790003, 0.42157462, -0.17774518, 0.27481756, 0.29436103, -0.41414183, -0.2738529, 0.18710963, 0.25648388, 0.32517794, 0.5146142, 0.5174992, -0.41332683, 0.5130388, 0.3114083, -0.13574271, -0.22873928, -0.30465028, -0.47801158, -0.14041749, -0.15183462, -0.31595197, 0.26807076, 0.47063723, -0.13891144}, 
{-0.1419725, -0.17914383, -0.094485484, 0.17619073, 0.07099876, 0.123365976, -0.17243217, -0.17360656, 0.09097479, -0.2364021, 0.24117899, 0.21607326, -0.23341137, 0.05192631, -0.17882752, -0.041578196, 0.08625091, 0.1398836, 0.074201494, 0.23517151, -0.034965612, 0.008416335, -0.10975724, 0.013242401, 0.10160315, 0.17773068, -0.06276366, -0.18615384, -0.10032396, 0.23592408, -0.067988545, 0.10242866, -0.014026389, -0.15558363, 0.14267467, -0.13763177, -0.06984469, 0.046239585, -0.20404992, -0.100589216, 0.13888453, 0.079398274, 0.0207346, -0.12974107, -0.10802193, -0.2518418, 0.12003214, 0.118096426, 0.28685716, -0.21660776, 0.2397912, -0.12957765, -0.087133974, 0.09752799, -0.22322775, 0.088129655, 0.00024395829, -0.18852875, -0.09993654, 0.14482062, 0.06652323, -0.14908385, 0.19650942, 0.04374386}, 
{0.15503871, -0.06854805, -0.061218493, 0.1650692, -0.0635686, 0.044276103, 0.14538166, 0.048150074, -0.15825501, -0.017198017, 0.10850651, 0.050812904, 0.048615918, -0.037999418, 0.21175565, -0.20849527, -0.11371054, -0.07073352, 0.15920398, -0.069623716, 0.076990545, 0.10182836, 0.18971717, 0.01843567, 0.16580626, 0.1259322, 0.020284422, 0.2521527, -0.31259215, 0.011077368, -0.08530818, 0.15866491, -0.037839465, 0.07894288, 0.24343754, 0.121853404, 0.23412423, 0.08078038, -0.031249443, -0.008945089, -0.1398815, -0.016833153, 0.062405877, 0.15104899, 0.24261239, 0.03228089, -0.024826795, -0.058367945, -0.0358403, 0.050944563, -0.14851224, 0.045656133, -0.10709366, -0.21214068, 0.10625537, -0.15661417, 0.12087852, -0.05777355, -0.10242825, 0.13079657, 0.21899325, -0.10499806, -0.11216309, -0.11994285}, 
{0.1660657, 0.038419448, 0.19815584, 0.10374686, -0.07602909, 0.16688146, -0.030307233, -0.12353445, 0.04936018, -0.12572889, 0.118766375, 0.09481564, 0.16987967, 0.21040641, 0.18853647, 0.073654495, 0.15046944, -0.1573266, -0.16926971, -0.14705653, 0.10184222, -0.19594957, 0.024935665, -0.008231326, -0.25849885, 0.24659103, 0.16921598, 0.049900085, 0.17204611, 0.09665247, -0.16204035, 0.032208003, -0.047825336, 0.2088116, -0.15391836, 0.005648641, -0.003900854, 0.006543677, -0.017976427, -0.04119412, -0.038067073, -0.07783089, 0.1758376, -0.062789425, 0.038574476, 0.045865133, -0.034646012, -0.03102299, 0.0490387, -0.11593036, 0.13480307, 0.13564597, -0.08615503, 0.15557078, -0.24385887, -0.09146999, -0.19949053, 0.17851263, 0.07558063, 0.10145636, 0.005368873, -0.16595434, 0.15153718, 0.040715747}, 
{-0.03047606, 0.08146685, 0.06140879, -0.108018, 0.18879665, 0.016228646, 0.1814694, 0.03802096, 0.2145717, 0.15585306, -0.15012665, -0.05750085, -0.078233466, 0.11369612, -0.024473345, 0.070412286, -0.19046244, 0.08520903, -0.025112603, -0.16277857, -0.20246567, 0.13877179, 0.056662176, 0.26516518, 0.07326351, -0.12180412, 0.084375165, 0.0066311834, -0.04030211, -0.16326086, -0.17599878, 0.18972464, -0.051424958, 0.058831558, -0.14695585, 0.050224096, -0.04037592, 0.22793636, -0.13560855, -0.19196506, 0.081217475, 0.18313834, -0.08812433, 0.09921168, 0.17541434, -0.02089699, -0.21567537, 0.04938457, 0.11723144, 0.11257807, 0.015426762, 0.22282776, 0.19158453, 0.07585779, 0.02335895, -0.022009855, 0.1628505, 0.22001994, -0.11982524, 0.1840389, -0.051093593, 0.071675, -0.0546925, -0.23167467}, 
{0.1714176, -0.18313488, 0.10879271, 0.069774136, -0.1046031, 0.12661938, -0.12897006, -0.043668844, 0.10366212, 0.18524924, 0.11921453, 0.15298793, -0.17722234, 0.09209549, 0.18684246, -0.12327368, -0.039390758, 0.0802039, 0.028490104, 0.035796836, -0.03645416, -0.1821253, -0.06500868, -0.08264719, 0.0012546848, 0.088953644, -0.13051502, -0.062263343, -0.23210181, 0.16351727, 0.054168098, -0.042490844, -0.07618499, 0.18142399, 0.20122422, -0.052436266, 0.08243414, -0.060949508, -0.15286444, -0.14670858, 0.08293776, 0.0154876355, -0.10615969, -0.05636637, -0.02124222, -0.13616416, -0.01573431, 0.02743518, 0.14853434, 0.025100846, 0.09566073, -0.12569465, 0.08402704, 0.18925682, -0.2619174, -0.12099804, -0.17543633, 0.06696176, -0.1956607, -0.09114655, -0.08470555, -0.033774063, 0.108876, -0.09905837}, 
{0.13515437, 0.12328977, -0.012413184, -0.022329299, 0.028547456, -0.17133386, -0.124436505, 0.15706743, -0.28386453, 0.043028932, -0.10346095, 0.090587616, 0.12443549, -0.21608785, 0.16375008, -0.046003662, -0.013277085, 0.16837311, 0.05057434, 0.16373138, -0.030417264, 0.17135388, -0.16037579, 0.102181315, -0.032171767, 0.09236045, 0.042363238, -0.055398945, -0.19675235, 0.14564331, 0.117586926, 0.21090358, 0.21992129, 0.19753624, 0.07169158, 0.024977827, -0.10854912, 0.18112126, -0.010638101, -0.09363215, 0.16661237, 0.16658422, -0.022589654, -0.17183384, 0.21783337, 0.13652149, -0.06478376, 0.11195418, -0.021337645, 0.12672795, -0.11316752, -0.1296383, 0.11896537, -0.1930966, 0.0626598, 0.039478783, 0.115017846, 0.2126956, 0.22933584, 0.18946834, 0.09739879, 0.13009316, 0.040172562, -0.16283116}, 
{0.35889208, 0.35518685, -0.22796106, -0.3933508, 0.12189972, 0.4179519, -0.06624122, 0.24538904, -0.030003697, -0.16998023, 0.28517178, 0.39997208, 0.13426793, -0.08727671, 0.11109205, -0.37531164, -0.08776419, -0.14002106, 0.10654666, -0.35959616, 0.11731078, 0.069833286, 0.018607127, -0.09105709, -0.0063757924, -0.39605471, -0.20806502, 0.3648489, 0.03833308, -0.41819078, -0.36904007, 0.33743387, 0.052341945, 0.14691545, 0.250351, -0.4548087, 0.13203982, 0.3367748, 0.15636766, 0.1058369, -0.27441677, 0.31019348, -0.37726778, 0.06922501, 0.077157706, 0.25607076, -0.43784598, -0.066041335, -0.19216293, -0.08887684, -0.28448457, 0.24056646, -0.021842588, -0.449109, 0.17186502, 0.32440615, 0.1565872, 0.4155184, 0.35779992, -0.087435015, 0.020259557, -0.21988064, -0.4221556, 0.03904953}, 
{0.15519024, 0.0043531903, -0.2333311, -0.014827278, 0.034049157, -0.12084482, -0.0627879, -0.099970825, -0.15880743, -0.035116132, -0.2581581, 0.046203583, -0.014911129, -0.041906256, -0.12093141, 0.010889328, -0.11812098, -0.10581735, -0.17430224, 0.18843135, -0.021244131, 0.17309064, 0.029494878, 0.04496988, -0.077501364, -0.006152165, -0.030232565, 0.054159712, -0.2522414, -0.044587553, -0.08371872, 0.24387644, -0.02859073, 0.028987184, -0.2360776, -0.15416335, 0.25833216, 0.13342999, -0.16212314, 0.040011667, -0.09291426, 0.10379144, 0.20027126, -0.05007328, 0.021271726, 0.23429522, 0.110732295, 0.15502113, -0.09617692, -0.18562013, 0.13853253, 0.046648346, -0.10230144, -0.13642979, 0.2576192, -0.1591551, -0.03105849, 0.18177596, -0.12123246, -0.23961581, -0.058188334, 0.16139393, -0.0413839, -0.09579693}, 
{-0.24069871, -0.15642871, 0.08899862, 0.18269104, -0.074112274, -0.06540627, -0.0369529, -0.25661904, -0.08248406, 0.20947085, -0.1605196, -0.09226496, 0.090322234, -0.010852537, 0.11412794, -0.04523045, -0.07718531, 0.15681794, 0.1781828, 0.16329207, -0.01866468, -0.23117521, 0.032388497, 0.12012884, -0.116941154, 0.27349508, 0.049135752, -0.014659939, 0.20948553, 0.14367777, 0.27309805, -0.14246754, 0.023522925, -0.017408768, 0.16426218, -0.007819462, -0.3059126, -0.26146877, 0.04154255, -0.035389192, 0.09696868, -0.26599443, 0.21789184, -0.061752275, 0.024319474, -0.22619161, 0.16953528, 0.034634396, 0.09423958, 0.19794837, 0.09992466, -0.056780405, 0.20955618, 0.07769578, -0.17889084, 0.1324797, -0.01741807, -0.07095916, -0.15563458, 0.06450643, -0.23312303, 0.073289014, 0.09498973, -0.07413512}, 
{0.09347311, -0.06270846, -0.03769246, -0.15326037, -0.22991526, -0.052797474, -0.12340451, 0.010201066, -0.14877881, 0.06714984, -0.22974758, -0.110298745, -0.0069404263, 0.07260566, -0.20155379, 0.13695735, -0.17708449, -0.009302351, 0.10513423, 0.14494877, -0.037058074, 0.19660202, -0.090619266, 0.027781125, -0.11946027, -0.18403253, 0.09593512, 0.26155955, 0.0542134, -0.24801324, -0.06412224, 0.14363115, -0.03232661, 0.10436322, 0.11006832, 0.15631503, 0.027337402, 0.26453936, 0.08743911, -0.00890241, 0.0007589714, 0.1296873, 0.17845595, 0.21065408, 0.037112392, -0.078794815, -0.081574336, -0.070923306, 0.05905594, 0.01503061, -0.0022172558, 0.12580405, 0.054792076, 0.10050469, 0.06634155, 0.2374707, 0.104878426, -0.14032672, 0.097596966, -0.04065092, -0.06400865, -0.24843095, -0.17315964, -0.15143652}, 
{-0.3962971, -0.11462992, 0.33349606, 0.26371145, -0.01606394, 0.033717822, 0.018223172, -0.26222208, 0.31505597, 0.41919568, -0.25439537, -0.19803289, -0.28246117, -0.138346, 0.18291381, 0.23839802, 0.43651944, 0.45387357, 0.2888883, 0.24180223, -0.2082137, -0.18370451, -0.1705496, 0.11166671, 0.38292378, 0.46411076, 0.040619284, -0.457173, -0.022515725, 0.13503565, 0.183297, -0.3149055, -0.33473235, 0.19298191, -0.35048488, 0.18139309, -0.2062619, -0.42618492, -0.14276282, 0.2657058, 0.062332977, -0.36652097, 0.08541115, 0.2701822, -0.07046341, -0.17301755, 0.23269948, 0.24573962, 0.46179783, 0.34220034, 0.2292175, -0.41000858, -0.014235888, 0.19746259, -0.21290609, -0.18605724, -0.35407588, -0.30241048, -0.1942815, 0.061305344, -0.10415941, 0.2804365, 0.22476651, -0.088683546}, 
{0.28278357, 0.2847675, -0.4115636, -0.06408, -0.17729002, 0.22038113, -0.27374083, 0.13653615, -0.26073813, -0.06973697, 0.46146074, 0.45268843, 0.40611285, -0.09254339, -0.15423799, -0.31129384, -0.0020661235, -0.04303813, -0.12735856, -0.37938407, -0.02944447, 0.40395024, -0.00725772, 0.017456872, -0.09781699, -0.3819013, 0.02877111, -0.18228565, -0.117332436, -0.34497464, -0.08824552, 0.33884883, 0.21303087, 0.06261244, 0.15077318, -0.3635512, 0.14062269, 0.22722961, 0.20639068, 0.21928877, -0.24260953, 0.070883416, -0.3366416, -0.31516027, 0.05391826, 0.055701032, -0.37806648, 0.13915995, -0.4113376, 0.051948793, -0.3772152, 0.21158637, -0.19221489, -0.15290417, 0.009886067, 0.19057326, 0.43218943, 0.22849844, 0.32931802, -0.2227023, 0.36703965, -0.037741464, -0.26786318, -0.08522867}, 
{-0.008296513, 0.23597106, 0.19509724, 0.07466244, 0.124408945, -0.15745905, -0.030048702, -0.083407305, -0.10789068, -0.075253256, -0.091286756, -0.023547614, 0.023921683, -0.18865742, -0.165477, 0.18339874, -0.02206899, 0.088252485, 0.03198043, 0.15925406, -0.1454677, -0.103247434, -0.11317411, -0.18884869, -0.18904549, 0.13075483, -0.12780881, -0.19527532, -0.07001922, -0.014435366, 0.11517059, 0.1089946, -0.12438272, 0.023097465, -0.11317208, -0.12789351, -0.20430622, 0.17951658, -0.08453395, -0.17635533, 0.0717652, -0.19946823, 0.16045594, -0.0607457, 0.1678685, -0.19644193, -0.10240039, -0.11162779, 0.076842315, -0.002822327, -0.15595664, -0.19463006, 0.22568992, 0.22525778, 0.018475406, 0.03270049, 0.022433281, -0.22719826, -0.16427748, -0.002081895, -0.059573032, 0.10876931, 0.1252998, -0.14950868}, 
{0.20137611, -0.08192599, -0.029984519, -0.088804, -0.2079789, 0.15489122, -0.19077419, 0.2409824, 0.13244642, -0.10430858, -0.06230604, -0.018645458, 0.04085382, -0.011575321, -0.14733602, 0.09105334, -0.006745861, 0.1774401, 0.111898884, 0.031287145, -0.017557247, 0.21970932, 0.056158308, 0.18037745, 0.09815348, -0.123847365, -0.09907787, 0.15598017, -0.05232822, 0.015255203, -0.19166915, -0.09686567, -0.028246358, -0.014042645, 0.041700047, 0.027459467, 0.11268767, 0.18773341, -0.11332703, -0.0051270714, 0.16959591, 0.023805065, 0.20229493, -0.01377719, 0.043714117, 0.14867704, 0.24336612, -0.12445815, -0.057128463, 0.064415544, -0.11540139, 0.22484133, -0.083761625, 0.07756448, -0.07489786, -0.112416886, 0.1620245, 0.19653778, -0.023620637, 0.0083851, -0.09797895, 0.0423132, 0.20475115, 0.1337863}, 
{-0.022205476, -0.23036359, -0.13888875, 0.27405542, 0.124567196, -0.21687399, 0.3797495, -0.035922673, 0.40815663, 0.17866182, 0.010178527, -0.1693105, -0.3615495, 0.11122357, 0.049419567, 0.1525281, 0.40584826, -0.10063259, 0.44335493, 0.37310362, -0.21737282, -0.31724375, -0.19470178, 0.12556806, 0.27930936, 0.20232877, -0.1600004, -0.15156719, 0.16163212, 0.31005734, -0.14688134, -0.37121117, -0.06760754, 0.089312, -0.068045355, 0.42428273, -0.3309976, -0.17770171, 0.08883536, 0.2193569, 0.4164749, -0.45465797, 0.20536946, 0.43242165, -0.17653273, -0.0865561, 0.28431323, 0.33920932, 0.11186296, 0.15601979, 0.15853438, -0.44726256, 0.25316685, 0.124767005, -0.21012053, 0.0624182, -0.33491302, -0.2611606, -0.25234973, 0.11117921, 0.09494993, -0.15972053, 0.26113218, 0.07502947}, 
{-0.05604877, -0.1042077, 0.15268578, 0.012390178, 0.077964954, -0.089981355, 0.2115052, -0.037443608, 0.0070237895, 0.17453288, 0.13034777, 0.03604624, 0.062043514, 0.16645205, -0.19970083, -0.08897453, -0.024641173, -0.028515616, -0.07350806, 0.16419816, 0.13130775, 0.15638694, -0.086612746, -0.019148342, 0.034865677, 0.040231045, -0.009863961, 0.07649247, -0.10426656, 0.06914577, -0.054110955, 0.104484335, -0.030415997, -0.079491496, 0.20795847, 0.15798514, -0.21063904, 0.13564771, 0.091127396, -0.12778124, -0.0011793787, 0.05235074, -0.0054047084, 0.21405385, 0.15564603, -0.18689407, 0.1540755, -0.20115007, 0.23949207, 0.016282761, 0.032963477, 0.20435049, -0.059288483, 0.229054, -0.09069701, 0.105902754, -0.0926701, 0.056376472, 0.08527252, -0.14684202, 0.26400676, 0.044640917, 0.2364217, -0.109121285}}