{{0.06525272, 0.17668438, 0.037741963, -0.028084667, 0.07603384, -0.03146538, 0.058503352, 0.061474737, -0.055529736, -0.01037376, -0.13646309, 0.03832934, -0.16787416, -0.11040122, 0.05477849, -0.15255053, 0.08782455, -0.101376794, -0.11063506, -0.17837913, -0.054910485, -0.08825186, 0.119749844, -0.14306363, 0.16223598, 0.113970175, 0.1273074, -0.01406611, 0.1526505, -0.029704364, -0.1356525, 0.0035035303, 0.13343567, 0.008172917, -0.064538725, 0.22784093, 0.12756722, 0.037267637, 0.10136211, -0.1697596, 0.1172627, -0.14464831, 0.07498796, 0.076107904, -0.07260234, 0.20124601, 0.08447069, -0.24626376, -0.0724146, 0.11429866, -0.15775973, -0.039789725, 0.060827367, -0.049792968, 0.008744474, -0.08603156, 0.06481149, 0.17939152, 0.1410137, 0.06567256, -0.062921196, -0.09686635, -0.16039711, -0.10390861}, 
{-0.020221073, 0.04240895, -0.28186664, -0.118647136, -0.19877064, 0.14973588, -0.07076947, -0.06920274, -0.022314442, 0.0067685093, 0.033080332, -0.024211153, -0.042143233, -0.11687438, 0.024371894, -0.12243535, -0.0068054413, 0.16754965, -0.041890167, 0.05117752, -0.018417614, 0.21206713, -0.09831637, -0.26036304, -0.12782766, 0.14184906, -0.0029908298, -0.15888084, -0.019578468, -0.023385378, -0.027677607, -0.1412028, 0.16848479, 0.093394496, 0.13765275, 0.15539917, 0.121533446, 0.006412157, 0.07491047, 0.17622097, -0.14619638, 0.047564764, -0.04099068, 0.13209824, 0.102129534, 0.13099249, 0.15408958, -0.24614103, 0.13400829, -0.16229922, -0.065474905, 0.1703099, -0.033521213, 0.0023222656, 0.1258149, -0.026932273, 0.2034486, -0.048847247, 0.1642762, -0.10489776, 0.16434194, 0.11798303, 0.111488916, 0.11527497}, 
{0.045590304, 0.06946034, -0.24336365, 0.03650126, -0.046536632, -0.17830594, 0.1239975, -0.10522705, -0.05220269, 0.17070465, 0.10338461, -0.07888406, 0.04407351, 0.14215124, -0.121526524, 0.19291162, -0.11715883, 0.08185233, 0.13302131, -0.17677476, -0.07155191, 0.085147806, 0.06105079, 0.13149701, -0.11654967, -0.10267509, 0.03928146, 0.11253435, 0.1613794, 0.08888501, 0.027023029, 0.05038239, -0.11788255, 0.11904029, -0.17768447, 0.15669093, 0.054309398, 0.07634155, -0.12060964, 0.14334013, 0.009982226, 0.005043252, 0.16328406, 0.13549575, -0.19944945, 0.15460876, 0.15072303, -0.19335689, 0.07178156, 0.10684006, 0.13818938, -0.13891682, -0.027627962, -0.02754638, -0.037433937, -0.10869403, -0.14347541, 0.1923879, 0.12985137, -0.016754463, 0.12101066, 0.032477625, -0.048557557, -0.00070551137}, 
{-0.16291805, 0.15287142, 0.030221522, 0.10216979, 0.022524633, -0.1633989, 0.012936682, -0.19749984, -0.14362459, -0.08861106, 0.0003181944, 0.057899076, -0.18490689, 0.0038530272, -0.0007112662, 0.112829044, 0.13681307, -0.106872655, 0.1271343, -0.057470564, -0.028652303, -0.19305857, 0.112111196, -0.04247372, -0.06950609, 0.14142291, -0.11434468, -0.010729262, -0.12359637, -0.2084141, -0.18614438, 0.19799143, 0.105904035, -0.016297327, -0.08993147, 0.10958206, -0.09483758, -0.009819749, -0.16580507, 0.061423995, 0.074825615, -0.06404868, -0.006582121, -0.07315837, -0.07895232, 0.020889763, -0.0047085346, -0.18158409, -0.18782277, 0.17540242, -0.0071349763, 0.01463744, -0.11595744, 0.084459946, -0.07351953, 0.096279144, -0.080014914, -0.032412972, -0.17629446, 0.30844024, -0.063854225, 0.18989122, 0.068270184, -0.056801993}, 
{0.047096662, -0.08808937, -0.23788221, 0.1674632, 0.080130786, 0.06502662, -0.003779732, -0.19157872, -0.038869742, 0.10358975, -0.046894398, 0.1390034, -0.1893923, 0.16459258, -0.010972606, 0.09535927, -0.11572484, -0.13589977, 0.25728115, -0.07528204, -0.07328436, -0.18080881, 0.14776985, 0.16031624, -0.08420956, 0.18499053, -0.016165623, 0.14243719, -0.04419065, 0.05849047, -0.1917345, -0.061927937, -0.15624729, 0.15892799, -0.10034451, 0.045449406, -0.14858764, 0.16402732, -0.19112538, -0.10704487, -0.18696588, 0.13215232, -0.12291227, -0.058314726, 0.0923498, 0.008861294, -0.1432326, -0.07025323, 0.11989579, -0.07162414, -0.023163786, 0.08377176, 0.030367423, 0.17281818, 0.26582134, 0.073766895, -0.07445464, -0.04215483, -0.18142202, 0.25436893, 0.075028025, -0.02551751, -0.020723231, -0.08429345}, 
{0.009480942, 0.23991662, 0.07576247, 0.03068578, 0.16392875, -0.03362148, -0.19089857, -0.06440672, -0.18605614, 0.066383205, -0.08958813, -0.11249204, -0.03169953, 0.025786236, -0.018048655, 0.10777735, -0.086339794, 0.08945373, -0.005279391, 0.1833933, 0.10139481, 0.1664124, 0.28594443, -0.031095086, -0.07577024, 0.11731854, -0.06842431, 0.05553491, 0.10029102, -0.1234121, -0.1433108, 0.08999598, 0.15808874, -0.014320371, 0.09603382, 0.091165796, 0.13570777, 0.19701317, -0.09258854, 0.15416212, -0.03606014, -0.11981829, 0.07138977, -0.09232165, -0.14119023, 0.03157494, 0.17550042, 0.076936156, 0.029285338, 0.20982595, -0.16447745, -0.07196678, 0.047742624, -0.061453953, -0.17969984, 0.1884873, 0.18125181, 0.17852895, 0.19380075, 0.21691681, -0.17682801, -0.07135576, 0.039666258, 0.18060952}, 
{0.026311116, 0.11282645, -0.36580205, -0.08819193, -0.025990965, -0.15134263, 0.09885678, -0.23448949, -0.005842777, -0.021178091, 0.17584428, 0.09603142, -0.11955419, -0.20290707, 0.16551298, -0.097099036, 0.11718689, 0.16670315, 0.18303265, 0.042946525, -0.11513703, -0.05980347, 0.05403966, -0.26169115, -0.050055653, -0.104849406, 0.07606034, -0.1871741, 0.17416297, -0.007528855, 0.03373616, -0.031191565, -0.045496617, -0.15879767, 0.05137396, 0.18929088, 0.15880404, 0.15374745, -0.13752577, 0.17912373, -0.22512628, 0.1649148, 0.110197276, 0.115688115, 0.011009966, 0.0020323757, -0.027266772, 0.24006811, 0.15693435, 0.11938006, -0.07482107, -0.16788226, 0.14553517, -0.00940975, -0.19875592, 0.18117055, 0.002005926, -0.05306891, -0.122346856, 0.2399404, -0.03326218, 0.19616191, -0.026740447, -0.14275232}, 
{-0.17091557, -0.20367457, -0.21021713, -0.06971121, 0.06479465, -0.015280942, 0.008739463, -0.069183275, 0.08133094, 0.17655316, -0.070849754, 0.0017463899, 0.02965073, -0.059567824, 0.08571546, 0.03446834, -0.107253365, 0.08010936, 0.1338338, -0.19691837, 0.19394119, 0.03589367, 0.02834024, 0.043475047, 0.052281946, -0.022573406, 0.1391394, 0.06388705, 0.18693645, 0.079665296, -0.08444934, 0.12753844, 0.1589843, -0.095124416, 0.14662802, 0.17096375, 0.121664904, -0.12691674, -0.17456542, -0.14661366, -0.012677752, -0.053300954, -0.037703358, 0.13460773, -0.07882475, -0.1983031, 0.12797973, 0.10035418, -0.1032021, 0.21140689, 0.15315703, -0.117529355, 0.18444781, -0.042169508, -0.039808653, 0.076110736, 0.20287503, 0.15959898, -0.09620094, -0.028788969, 0.044624034, -0.1334429, 0.018139169, -0.13703121}, 
{0.15852965, -0.021753874, -0.039889026, 0.041863494, -0.107415274, -0.17917632, -0.03502416, -0.03992082, -0.108596064, -0.001958604, -0.06448552, 0.16088748, -0.10449634, -0.06807792, -0.16393855, -0.05146044, 0.16988766, -0.08369262, 0.028157366, 0.16864374, 0.17337593, -0.13258296, -0.11343446, -0.037786916, -0.050571397, -0.02884528, -0.1350802, 0.12117264, -0.026900021, 0.07826263, -0.16021763, 0.1529195, 0.19221604, 0.178604, -0.14160876, 0.029250236, 0.09325306, -0.10470576, 0.119322754, -0.11571603, -0.16511223, -0.11228173, -0.16588713, -0.04925168, 0.20620784, -0.10323404, 0.16001596, 0.07733922, -0.059639536, -0.00885306, 0.004323585, 0.06178329, 0.1727141, 0.053523906, 0.112752244, -0.1765575, -0.023907032, -0.15033834, -0.048068568, 0.20864378, -0.15710157, 0.20256406, -0.05438466, -0.0025441358}, 
{0.11326853, -0.12995967, -0.24023753, 0.1418009, 0.0021944758, -0.13692543, 0.043964393, -0.03827506, -0.024952818, 0.15204172, 0.13218805, 0.09371402, 0.1265488, 0.013250012, -0.20064628, 0.07226412, 0.1536604, 0.16756403, 0.012226422, -0.006122503, -0.058068443, -0.16737555, -0.081575714, -0.092638835, -0.18015571, 0.19686852, 0.095159754, 0.14010864, 0.103469916, -0.034164783, -0.15473711, 0.17907862, 0.17323425, -0.11618026, -0.1419579, 0.015134217, 0.15335253, 0.048573997, -0.1211875, -0.16234967, 0.15733342, -0.16345829, -0.115116745, -0.17577541, -0.017988428, 0.10022067, -0.13310486, 0.21144247, -0.081376925, 0.09445764, -0.008769754, -0.038740013, 0.09168413, -0.0950316, 0.018882396, 0.12509115, -0.047774743, 0.03878058, -0.24355938, -0.15190135, 0.18987025, 0.13885857, 0.09675704, 0.089476176}, 
{0.099617384, 0.029898435, -0.16746023, -0.052846704, 0.13261507, -0.1874995, 0.1398909, 0.10742354, -0.16761892, -0.15635693, 0.021649005, -0.077919185, 0.14994977, -0.09946351, 0.07056023, -0.2015247, 0.099051006, -0.16966683, -0.18589386, 0.103811726, -0.0135808615, 0.16768074, 0.021317875, 0.005514492, -0.16498825, 0.1745756, 0.10203367, -0.09995411, -0.05999267, -0.03868059, 0.010125649, 0.13276719, -0.18005304, -0.18119158, -0.04604483, 0.074842215, -0.015944606, -0.047859497, -0.06594517, 0.06388414, 0.120446764, -0.0027360981, 0.03517754, 0.19043487, 0.12224871, 0.16760235, -0.088966586, 0.03599676, 0.073072486, 0.09221899, -0.14032082, -0.093984686, -0.12128732, 0.1773481, -0.10364083, 0.15049124, -0.09289142, 0.06974074, 0.18714516, 0.1403186, -0.17881013, 0.019250037, 0.04593765, 0.04996275}, 
{-0.020663219, 0.06757096, -0.07011868, -0.05281507, -0.1119401, 0.1537362, 0.23329397, 0.009094999, 0.04785108, 0.15529042, -0.12026465, 0.12900497, -0.16181882, -0.18350875, -0.20409201, -0.2239854, -0.11485081, 0.051847965, 0.053247314, -0.06625635, -0.0013287881, 0.2315338, 0.12181964, -0.2025123, -0.07597174, -0.1387502, 0.009026496, 0.00894475, -0.087299764, -0.038632225, 0.045807008, -0.14070801, -0.12698431, 0.13012001, 0.011780788, 0.15461734, -0.10634068, 0.003505558, 0.14196727, -0.11538713, 0.084515706, -0.053756893, 0.15777251, 0.15024315, 0.022377638, -0.03799491, 0.042649478, -0.05660345, 0.08014514, -0.04302426, 0.1290642, -0.06357285, -0.052244734, -0.030173317, 0.13481647, -0.16026834, -0.012967323, -0.05261278, 0.15803117, 0.07908653, -0.082234204, -0.15431245, 0.10990265, -0.1791074}, 
{-0.07819142, -0.1493253, -0.21085429, -0.06835577, 0.07894416, -0.010072941, -0.04228886, -0.18756698, 0.010400834, 0.029936323, -0.1335492, -0.07131065, -0.17511052, -0.06489029, 0.0029301122, -0.031514898, 0.053891137, -0.13474719, 0.13516581, -0.066731535, 0.04507296, 0.21052144, 0.18392354, -0.22950788, -9.26104e-05, -0.06758239, -0.022596056, -0.1401835, 0.100297414, -0.04286983, -0.22236061, 0.09815159, 0.18279704, -0.09285378, -0.120213516, -0.12210696, -0.019041853, 0.12761183, -0.10580533, -0.085716106, -0.28652984, 0.1450018, 0.18826666, -0.15724559, 0.090878166, -0.13505407, 0.0801751, 0.18219365, -0.07055285, -0.013708921, -0.030578677, -0.20346084, -0.14533572, 0.031812068, -0.055817485, -0.087510854, -0.0007806092, -0.1867062, -0.03207086, 0.07243206, 0.0015085884, -0.030972794, -0.26689628, 0.10788654}, 
{-0.01889298, -0.10375811, 0.09565159, -0.17035016, -0.11121569, 0.06157996, -0.020341352, -0.22126517, -0.14702275, -0.095569074, -0.10932752, -0.215287, 0.09791459, -0.07785509, -0.06154563, -0.16776383, -0.06559812, 0.18012588, -0.06474991, 0.10727563, 0.005545334, 0.03751399, 0.17002186, -0.055777747, -0.037661377, 0.08830642, 0.10157396, 0.21575159, 0.1682932, -0.028633235, -0.24516974, 0.052546807, 0.0991611, 0.06273446, -0.16714928, 0.15365553, -0.12333795, 0.08297294, -0.21225679, -0.04032096, -0.2108176, 0.03985918, 0.086050846, -0.13843152, 0.12346375, 0.17260662, 0.051378593, -0.17977066, -0.14892311, 0.12561956, -0.12687567, 0.004055976, 0.12553135, 0.105374426, 0.070858136, 0.009345488, 0.22500455, -0.09871474, 0.12391692, 0.2110711, -0.06854267, 0.078032926, 0.014179843, 0.0645808}, 
{0.00017165944, 0.025333123, -0.17315172, -0.06966015, 0.15946938, -0.09585498, -0.13560164, 0.048616342, 0.20144437, -0.065201625, 0.119312, -0.045017198, -0.09740664, -0.010255386, 0.08370911, 0.12592615, 0.024848709, 0.20973685, -0.078087404, 0.037473425, 0.01625413, -0.14989512, -0.047191348, 0.020387135, -0.21746111, 0.11214532, 0.11366984, 0.04478324, 0.044775687, -0.10110132, -0.060976405, 0.025408573, 0.08526223, 0.08804518, 0.00057381525, 0.06178452, -0.09430317, -0.0807827, 0.101662815, -0.07028508, -0.08475276, -0.12841478, -0.08734992, 0.0011319583, 0.20680663, -0.036795754, -0.035890944, 0.13415499, 0.066095255, -0.102782086, -0.19027254, -0.046195935, 0.19234206, 0.082882635, -0.034643758, -0.15882626, -0.038775794, -0.099368274, -0.14157537, 0.15973228, -0.003468831, 0.026128387, -0.28650275, 0.058392398}, 
{-0.18696769, 0.1477123, -0.1278193, 0.04166881, -0.11875144, -0.07841164, 0.03618868, -0.07613325, 0.020428412, 0.06985289, -0.01159132, -0.23336084, -0.16902354, -0.22705746, 0.04858152, 0.13869545, -0.044235993, 0.05938681, -0.023773402, -0.10506879, 0.11325962, 0.2813451, 0.027691303, -0.08631073, 0.04025748, -0.01674289, -0.010925505, -0.237375, -0.08060125, -0.018000951, -0.2516025, -0.19011122, 0.24489808, 0.0950954, -0.01145196, -0.074290626, -0.22476317, 0.1259134, -0.18582304, 0.022965088, -0.04828075, -0.1482479, 0.24826074, 0.077540256, -0.089636125, 0.094098076, 0.18629119, -0.12637049, 0.19563232, -0.20720458, 0.094187096, 0.092482984, -0.11638753, 0.032668643, 0.10623655, 0.100697435, 0.07140389, -0.11658499, 0.16568057, 0.2716016, -0.07973285, -0.122776344, -0.1429933, -0.11383557}, 
{-0.08467785, 0.09320234, -0.009572359, -0.1344204, 0.087813936, 0.19866848, -0.06594083, -0.064008445, 0.058914986, 0.1269948, -0.16278848, -0.1307706, -0.011718389, 0.14148739, 0.09404726, 0.16727133, 0.039156877, 0.031831294, 0.12852788, 0.06999805, -0.07554597, -0.1015632, -0.048050914, -0.28067508, 0.0009150563, 0.046230618, -0.023301698, -0.15856823, -0.011862901, 0.09400902, 0.0989385, 0.115938194, -0.12380708, -0.13181905, 0.018870879, 0.2211911, -0.01538644, 0.12031234, 0.12497538, 0.09753132, 0.013890402, 0.10168581, 0.12337535, -0.10528253, -0.1252875, -0.049942166, 0.14076875, 0.048603002, -0.05538385, -0.16887833, -0.11422675, 0.140533, -0.021939764, -0.0510007, 0.10094938, -0.046828598, -0.05133675, 0.1130487, -0.0008781821, 0.17118967, -0.0005809604, -0.116379745, -0.10729492, 0.12125326}, 
{0.153872, 0.09307655, -0.2686713, -0.15178965, -0.07035867, 0.14050801, -0.09380189, -0.16594617, -0.14346714, -0.0074441023, -0.1604681, -0.052805763, 0.14093833, 0.19096339, -0.007577528, -0.15604709, -0.04348107, -0.13314681, 0.12930784, 0.1388813, -0.092658006, 0.13131508, -0.048227873, -0.11932527, 0.03009756, 0.15267053, -0.050009154, 0.057306454, -0.058198586, 0.053156804, -0.11620075, 0.107705764, -0.03784292, 0.042954646, -0.11550129, -0.06751263, -0.17433572, -0.1892457, 0.03779901, 0.08076162, 0.074868836, -0.082493916, -0.06732198, -0.016936367, 0.13257721, 0.12559189, 0.21346292, -0.17442559, -0.16685945, -0.017490828, 0.011571832, 0.012723341, 0.056879405, 0.18291925, 0.093168646, 0.08910043, 0.17823625, 0.09444143, 0.17383656, 0.03253985, -0.037725646, -0.07996228, 0.04836349, 0.07970854}, 
{-0.033933315, -0.2558433, 0.14064063, -0.111437455, -0.016791372, -0.12009349, 0.094665706, -0.0023038217, 0.10368653, -0.1913469, -0.11263728, 0.00050555286, 0.005591136, -0.14131163, 0.13240139, 0.051019527, 0.022666153, -0.0047674077, -0.03683206, 0.17929061, 0.12189905, 0.018056875, -0.24046473, 0.19754584, 0.093388386, -0.14383197, 0.15773404, 0.16538702, 0.120114736, 0.007644001, -0.2084643, 0.09571473, -0.15054065, 0.08510442, -0.08230327, -0.18879965, 0.15681876, -0.16365965, 0.18564346, 0.0009490547, -0.0153356, 0.0679749, -0.09326082, 0.18194978, 0.01614558, -0.098923944, -0.12546344, 0.09813947, -0.005649628, 0.19702858, 0.111573555, 0.009532706, 0.14508708, 0.10435978, -0.042029377, -0.14760518, -0.09960983, 0.047128107, -0.16333462, -0.17492713, -0.0034432649, -0.0721014, -0.14276952, -0.003325563}, 
{-0.1480291, -0.1519892, 0.12470241, 0.014223672, -0.1981085, 0.04357158, 0.036053583, -0.09745476, 0.017631635, 0.13199912, -0.15706713, 0.06545368, 0.1724422, -0.16474739, 0.11269868, 0.021202752, 0.1377592, 0.13627675, 0.030698152, -0.12408614, 0.16031896, 0.043787524, -0.08966315, -0.018675147, -0.021166625, 0.016822232, -0.14439982, 0.08359039, 0.15075599, 0.10600973, 0.0012410245, 0.1856717, 0.20586424, -0.1448654, 0.12373928, -0.00818904, -0.14269644, -0.12253595, -0.0048102634, 0.058329783, 0.04380759, -0.0046673035, 0.054570895, 0.09210906, 0.13826247, 0.013073579, 0.15567195, 0.12022474, -0.10151115, -0.06382558, 0.10589819, -0.16839966, -0.12830405, 0.102565415, -0.13262385, -0.09225305, 0.1582432, -0.07835187, -0.12047919, 0.14841259, 0.18379252, -0.052964874, 0.11819353, 0.12810646}, 
{0.044321995, 0.060843363, -0.26524517, 0.12527396, 0.117625505, -0.07362529, 0.06747584, 0.040406145, -0.009733625, -0.12073881, 0.072145775, 0.18204838, 0.15834458, -0.23026438, -0.10370614, -0.04819706, 0.057956286, -0.1345429, -0.0005275087, 0.106517725, 0.04902464, 0.20128354, -0.162546, -0.014135135, 0.18235463, 0.11068668, -0.025789008, -0.113529555, 0.14026293, 0.03763924, -0.14579505, -0.101367794, 0.10297708, -0.054812703, 0.13474974, -0.0504523, -0.18496168, 0.01619108, 0.055479046, 0.16129537, 0.13259989, -0.07614756, 0.015820244, -0.175223, 0.10894538, -0.15239428, 0.22881296, -0.19507042, 0.06450345, -0.014440189, 0.14394756, 0.15479514, 0.20136656, -0.04771162, 0.00103958, -0.021443117, -0.060096633, 0.080522, 0.13634656, -0.16412246, 0.1610469, 0.12818858, -0.20203964, 0.035943232}, 
{0.081351385, -0.08422714, -0.11131621, 0.035325114, 0.008579969, -0.18743977, 0.074111655, 0.14234695, 0.049956135, 0.010463703, -0.12608097, -0.13437468, 0.13311023, -0.007834887, -0.041271377, -0.06900862, -0.20280118, -0.11386996, -0.03168569, -0.0783114, 0.1287529, 0.0072246324, -0.09599645, -0.14919902, 0.11025062, 0.1694035, 0.122627884, -0.23219103, 0.0033104408, -0.16511475, 0.17321411, 0.05654196, -0.18738219, 0.14332347, -0.13077939, -0.09347856, -0.059279554, -0.049708255, 0.17925209, -0.13544293, -0.04703402, -0.011435257, 0.06714795, -0.021038631, 0.031091105, -0.16574006, -0.04818571, 0.056358356, 0.054524038, -0.1135209, -0.18919055, 0.0047713215, 0.14957517, 0.13591762, -0.03683317, 0.16192767, 0.10246394, 0.048807494, 0.10595859, -0.1785183, 0.19937427, -0.10344635, -0.02272634, -0.02536111}, 
{-0.05929368, 0.010957836, 0.01227952, -0.14021337, 0.05181299, -0.12461887, 0.012001502, -0.10914847, 0.22476737, -0.046713665, 0.15233883, 0.12876345, -0.24469663, -0.010655487, -0.17950647, 0.0959388, -0.0121965865, 0.21610773, -0.062642284, -0.12382128, -0.18241672, 0.121814445, 0.125303, -0.13138895, 0.086238354, 0.07092074, -0.078509085, -0.10797488, -0.034364093, 0.019533413, 0.122628346, 0.055481557, 0.08469981, -0.11611816, -0.17081618, -0.053028163, -0.11841985, -0.16611281, -0.079724036, -0.049640294, 0.05624278, -0.13769732, 0.12353654, 0.09084025, 0.008707977, 0.027674915, -0.008072114, -0.14198902, 0.15160617, -0.067185745, 0.098131694, -0.093740515, 0.06290279, -0.091046646, 0.15789941, 0.14717281, 0.23508985, -0.12837443, 0.18159136, -0.02690256, 0.1984623, 0.051867455, 0.020326843, 0.1272733}, 
{-0.18944949, 0.025425162, -0.044090476, -0.17222816, -0.096691385, 0.0058245314, 0.04953029, 0.14341505, -0.11508218, -0.09765902, -0.11542234, -0.09159041, -0.24935459, -0.113743424, -0.0077992594, 0.18628697, -0.21218717, 0.07838602, 0.013723787, -0.035602584, -0.16611609, -0.039510746, -0.080399014, 0.052133102, 0.054529328, 0.04803026, -0.009650371, 0.09060471, 0.2192018, -0.024299322, -0.067843854, -0.09387019, -0.03877331, 0.11630203, -0.11554155, 0.10977508, -0.2192726, -0.15135671, -0.1719067, 0.047712136, 0.01369496, -0.17844939, -0.03939504, 0.0687848, 0.1241342, 0.1589209, -0.093879804, 0.20541538, 0.17746875, -0.042655468, 0.013651661, -0.20037284, 0.19297941, 0.079313494, -0.094317585, 0.027620398, -0.069541365, -0.18647562, -0.025708904, 0.08104788, -0.006068269, 0.0025111726, -0.18431002, 0.07994075}, 
{-0.067917734, -0.23511788, 0.1626446, -0.020204755, -0.19768986, -0.15274842, 0.21236202, 0.061358053, 0.13307558, -0.19351037, 0.2126907, -0.21909976, 0.06167962, 0.06280526, -0.1343669, 0.09770183, 0.044116467, 0.18512546, -0.028870348, -0.089221664, -0.15624021, 0.22340672, 0.025638169, 0.14854002, -0.24185106, 0.17172658, -0.04694673, 0.01924849, 0.083727725, -0.17346846, 0.11513542, 0.04299431, 0.23435721, -0.14795145, 0.067911215, -0.04303105, -0.08788494, 0.053496696, -0.0094420435, 0.10541274, -0.16092756, -0.07848655, 0.15291585, -0.2205244, 0.22241089, 0.10743348, 0.04079915, 0.07774918, -0.040387165, 0.045032106, 0.09325345, -0.1532913, 0.028196208, 0.054478195, 0.03541761, 0.065102994, 0.08673713, 0.050102185, -0.08644405, 0.20262037, 0.1796821, 0.040444206, 0.078659266, 0.14721498}, 
{-0.22325054, -0.0040811775, -0.1260638, 0.050821092, 0.15430847, -0.16545369, -0.022417588, 0.11255584, 0.16615434, -0.20146003, 0.1355625, -0.25138673, 0.037583474, 0.030551994, -0.31892356, 0.112520404, -0.13839215, 0.28064167, -0.19364613, -0.054096185, -0.21637493, 0.13788989, 0.1491788, -0.062593244, -0.2935823, -0.034056637, 0.04740564, -0.22113365, 0.21429658, 0.015743779, 0.021133335, 0.012154691, 0.06525758, -0.27919713, -0.17930841, 0.14420068, -0.10465452, 0.047887918, 0.23348488, -0.17685834, 0.023927253, -0.16773148, 0.038204324, -0.025261503, 0.19757935, -0.098092705, 0.060361706, -0.14835231, 0.11513237, 0.06899203, -0.018439386, -0.03284659, 0.2091266, -0.0017509102, 0.091162376, -0.17337488, 0.13102485, -0.14213184, -0.06831054, 0.27559742, 0.09081964, 0.013056507, -0.11739812, -0.08821422}, 
{0.052625757, 0.10423005, -0.08045903, 0.13988669, -0.07478959, -0.14521894, -0.12705699, 0.03207203, -0.039698914, -0.15097326, 0.15196206, 0.043637455, 0.12728742, -0.106296785, -0.23124792, 0.054207977, -0.10056783, -0.0047541577, 0.047988955, 0.035094984, 0.12761675, 0.021741668, 0.27751216, -0.15245198, 0.058744285, 0.08838038, 0.0013385189, -0.2640049, 0.17199038, -0.06099609, -0.114090726, 0.08496099, 0.048375174, -0.15649372, -0.13020982, 0.00048239343, -0.2169775, -0.035396334, -0.08059005, -0.030620275, -0.11548725, -0.19684212, 0.11479853, -0.11876436, 0.07611555, -0.20347948, -0.12543017, -0.22039269, 0.14390695, 0.044936758, 0.08407251, -0.13090375, 0.00010070549, -0.06080739, -0.22432289, -0.025652235, 0.13381618, -0.12124385, -0.043001167, -0.024608035, 0.072048426, 0.019829677, -0.14211924, -0.01724271}, 
{-0.043765962, 0.052579936, 0.15324603, 0.15464504, 0.16192186, -0.067771845, 0.053163283, -0.16197321, 0.07847671, 0.18396552, 0.16456538, 0.08356976, 0.20683798, -0.08227749, 0.03581343, -0.13517214, -0.04279706, -0.07811251, -0.082508825, -0.17021345, -0.08400866, -0.16843756, 0.009245807, 0.019106742, 0.11907, 0.08121128, 0.049436983, 0.012039805, -0.09610584, -0.03124567, -0.06104567, -0.03558125, -0.14433028, -0.11041345, -0.08910572, -0.19449982, 0.0084187435, 0.15124975, 0.18608443, -0.044279285, -0.07761254, -0.12646508, -0.14415702, 0.04005707, 0.02451258, -0.18173935, -0.09275761, -0.020666542, 0.13885187, -0.11215279, 0.1157322, 0.17218874, 0.041955702, 0.015596625, 0.12942539, -0.022248147, -0.16057909, -0.050163757, -0.077975936, 0.069790706, 0.11918072, 0.16699947, -0.048506718, 0.119820856}, 
{-0.028919019, -0.20704576, 0.188165, -0.13712394, -0.0012626176, -0.13500546, 0.12000577, -0.18796605, 0.13305943, 0.07567436, 0.15415624, 0.14979856, 0.03226852, -0.001580215, -0.052310094, -0.06361945, 0.122877195, -0.14209746, -0.03469384, -0.008379125, 0.06033274, -0.08808395, -0.0006290952, 0.113985375, 0.12116103, 0.07981155, -0.058894046, -0.12152408, -0.0046278043, -0.07524609, 0.04034483, 0.16526724, -0.09779708, 0.14049608, -0.04861132, -0.07030073, -0.089594595, -0.097182885, -0.107202776, -0.16242957, -0.06856569, -0.0043587275, 0.0061545703, -0.14312097, 0.07580923, -0.16449909, -0.1753924, 0.19031864, -0.08666615, 0.0654879, 0.07849731, -0.10734114, -0.023798516, -0.038408846, -0.13714458, 0.1987969, 0.076147884, -0.08122894, 0.02329155, -0.2339156, 0.041006155, 0.17246653, 0.09258049, 0.038538534}, 
{-0.16418067, 0.12564005, -0.004293774, -0.08387188, 0.019596884, 0.09307942, -0.005932808, -0.0402644, 0.054911178, 0.06607439, 0.0017709439, 0.16443428, -0.0024390689, -0.067284785, -0.18854612, 0.10209868, 0.13076657, -0.12955402, -0.017040428, -0.16231672, 0.042165797, -0.15402575, -0.13844332, -0.034038063, -0.14598766, 0.081799634, 0.07554603, -0.012930691, -0.06037851, -0.086833455, 0.16445075, -0.027986862, 0.07261008, 0.20968863, 0.10356744, -0.22492763, -0.15303625, 0.03854168, 0.16064662, -0.07881695, -0.09362075, 0.15124185, 0.025948018, -0.085557975, -0.018373767, 0.08039681, 0.016382819, -0.065015696, 0.16024922, -0.10288197, 0.010774918, 0.047437347, 0.068445176, -0.010930629, 0.05494971, 0.15851519, -0.07901127, 0.15199763, -0.03551418, 0.12522729, 0.15650576, 0.084575914, -0.01579877, 0.097462885}, 
{0.047736537, -0.056680415, -0.14850865, 0.056167487, 0.09168261, -0.1803634, -0.15912274, -0.1624956, 0.19592097, 0.11557084, -0.01404065, -0.1201486, -0.059392396, -0.049731158, 0.15705237, 0.13997678, 0.0019927772, -0.039748993, -0.036153328, -0.14637768, -0.10250134, -0.07858564, 0.102761164, -0.106856786, 0.18505952, 0.1261897, 0.06937721, 0.107148394, 0.099560454, -0.13685615, 0.16826151, -0.045950215, 0.012867753, 0.18724607, 0.065318115, -0.026171198, 0.138697, 0.02631545, -0.08967335, 0.033208467, -0.19951181, 0.08628728, 0.06295194, 0.007729044, -0.11701839, 0.038205322, 0.09944011, -0.06661833, 0.06622005, -0.12580612, 0.08502687, -0.18343237, 0.10974628, 0.03908895, -0.21005902, 0.010297124, 0.052239303, 0.034387723, -0.0716128, -0.0027421422, 0.0041613663, -0.15213263, -0.21816699, 0.14341739}, 
{-0.1774652, -0.07243564, -0.038290903, 0.03762972, -0.1947771, 0.1278149, 0.0829915, 0.023959171, 0.20820868, -0.068524845, 0.21666089, -0.046064295, -0.07177231, 0.04798442, -0.028571418, -0.13846548, 0.18355988, -0.13690783, -0.19475748, 0.10904778, -0.053574923, 0.100229666, -0.1741766, 0.05433836, -0.057444233, 0.056287985, 0.118038416, -0.14602534, 0.043559827, -0.060926918, -0.00017477473, 0.06253597, -0.0023111403, 0.007616817, -0.112373255, 0.02092848, -0.035222758, -0.15838926, -0.11689483, -0.13308023, 0.19058757, -0.059899427, 0.024211865, -0.10045222, 0.072162665, 0.11141191, 0.050053686, -0.0068567963, 0.0229565, 0.16964409, 0.14809799, -0.1449079, -0.026256382, -0.03533864, 0.18617961, -0.1223701, 0.09309301, 0.1607663, 0.012771517, -0.047770955, -0.11870939, 0.18250579, 0.1678585, 0.021050688}, 
{-0.11341542, -0.1595733, 0.22188148, 0.080604754, 0.064405315, -0.041187957, 0.12871815, 0.13978499, 0.14658523, -0.0998736, 0.08589238, -0.018781455, 0.04751765, 0.13723831, 0.031564124, 0.10552169, -0.21214363, 0.21726876, -0.14834264, 0.09798543, -0.21921113, 0.012043012, -0.028265968, -0.0075796084, -0.16844194, 0.18720849, 0.110418536, 0.15540774, -0.0019199583, 0.022733115, 0.004487944, -0.058796234, -0.09240564, -0.10953648, -0.07987579, 0.14614566, 0.030747617, 0.17712064, 0.060132872, -0.04356229, -0.11344578, 0.18025637, 0.17670171, -0.20954561, 0.034065094, 0.060500856, -0.14684445, 0.06248952, -0.088962905, -0.16836925, -0.1864667, 0.058549292, 0.20141724, 0.040398534, 0.08828766, 0.076271586, -0.1573416, -0.07205166, 0.046041965, -0.05667533, -0.067649595, -0.03633662, 0.0061819144, -0.17710833}, 
{-0.045546863, -0.037095435, -0.00084025174, -0.20562348, -0.12839952, 0.109708935, 0.08773242, 0.11342107, -0.054220494, -0.176946, -0.075631246, 0.09383685, 0.07657385, -0.1575095, -0.11153392, -0.122368746, -0.031766325, 0.1467734, -0.09107616, 0.1275366, -0.18298343, 0.18382716, -0.06717832, 0.25325307, -0.13577761, -0.09492864, 0.22153476, 0.18102497, -0.08646147, 0.10747976, -0.19210939, -0.09868104, 0.0070682587, -0.07275269, 0.15382533, 0.22024338, 0.056424562, -0.026635073, 0.05494725, 0.002273866, -0.25366187, -0.16146764, 0.18935063, 0.07135777, 0.17419915, -0.037272796, -0.061514404, 0.18176484, 0.22404778, -0.19766004, -0.19086722, 0.11725361, 0.12778546, -0.18329522, 0.12166355, -0.14462315, -0.11100415, 0.13796973, 0.058252197, 0.18434577, -0.016285269, 0.046643257, 0.0010676313, 0.060469057}, 
{-0.18495096, -0.35566124, 0.4257089, 0.14950185, -0.09186513, -0.080687664, 0.15349115, 0.12844197, 0.1318194, -0.21007133, -0.15090246, 0.023140809, -0.006561017, 0.023877492, -0.088905744, -0.02724036, 0.006503668, 0.07859047, 0.10596497, 0.089403786, -0.1695383, -0.089141294, 0.14781663, 0.16255158, -0.11743043, 0.0017728362, 0.08323669, 0.12913989, 0.06495426, 0.103176266, -0.04134657, -0.16622499, 0.11393481, -0.13028274, -0.118022524, 0.20193054, 0.100244164, 0.09728948, -0.044872716, 0.08706901, -0.0405354, -0.06774926, 0.20245142, -0.08806277, 0.055377208, -0.09143074, -0.2211822, 0.059933063, 0.041292697, -0.106955215, 0.16307236, -0.05589636, -0.18132104, -0.12521538, -0.14283782, -0.16313215, 0.08113937, -0.051545337, -0.03958607, 0.028550701, 0.19499835, -0.14058101, -0.1543473, -0.04607773}, 
{0.038574804, 0.04801677, -0.11224717, -0.21540777, -0.12034045, 0.14185438, 0.22856626, 0.021644155, 0.20097439, 0.12224057, -0.09201492, -0.16872731, -0.070483215, 0.07472908, -0.10907107, 0.06527779, -0.070014186, 0.071659066, 0.1650745, 0.12100846, -0.08213961, -0.082692795, -0.0029607897, -0.28714508, -0.11681738, 0.13370906, 0.059696767, -0.018825375, 0.014879472, -0.104039006, -0.15933031, -0.14586878, -0.06288175, -0.0668174, -0.19831215, 0.09601899, -0.15895356, -0.09693137, -0.1287544, 0.020538634, -0.22937834, -0.0067435913, -0.08038221, 0.096393324, 0.114023544, -0.04880877, -0.03183115, 0.014742157, 0.22660333, 0.12381144, -0.17347142, -0.1768064, 0.06425002, 0.018931175, -0.07930396, -0.14663456, -0.10833487, -0.1984404, -0.14498353, 0.225599, 0.2201948, -0.010957801, 0.006261822, 0.12477649}, 
{-0.13977456, -0.107109696, -0.056590162, 0.0933285, 0.12343687, 0.13063453, -0.10011525, 0.15050435, -0.12806167, 0.158584, -0.14645621, 0.16324037, -0.0811492, 0.028619703, -0.06098815, 0.04368706, 0.14304933, 0.113779455, 0.11482899, -0.19548042, 0.1577378, 0.06255183, 0.25129327, -0.12092414, -0.012392323, 0.017380351, 0.15238626, 0.0037119912, 0.11553276, 0.08808807, 0.1419288, -0.10005414, -0.059460428, -0.14879254, 0.15958337, 0.025762465, -0.010512899, -0.052712414, -0.08663995, -0.13968858, -0.17629349, 0.025754767, -0.00469026, 0.18583776, 0.049930148, 0.018897992, -0.1339111, 0.044440635, 0.11971293, -0.11581415, 0.12903403, 0.006516737, -0.15483356, 0.16654553, 0.10064687, 0.0135954805, -0.10582164, 0.08292327, -0.027869882, 0.21188, -0.11334906, 0.025185779, 0.15085314, 0.044100326}, 
{0.012407055, -0.059206918, -0.02491735, -0.12612502, 0.17153296, 0.10078774, -0.17036371, -0.08480609, 0.14241515, 0.05166673, -0.0407675, 0.09740251, 0.027484862, -0.2391712, 0.07691313, 0.048285697, 0.13744989, -0.17959644, 0.06598039, -0.07157446, -0.027550677, -0.1347013, -0.14233366, 0.102869354, 0.17831044, 0.057328396, 0.05823634, -0.029982222, -0.09140673, 0.0779636, 0.02280064, 0.14509428, -0.1401356, 0.20801476, -0.0665183, 0.054152504, 0.065545656, 0.12874654, -0.13701169, -0.06084433, 0.022252128, -0.013404849, 0.0061739977, 0.20378824, -0.17275637, 0.09506864, -0.01361015, 0.29615298, 0.08334848, -0.0957638, -0.0542039, 0.14403822, 0.0853895, 0.1286201, 0.11923555, 0.17048372, -0.028859412, -0.13490692, -0.070372276, -0.04492011, 0.12554838, 0.16390269, -0.028985439, 0.048863787}, 
{-0.051677857, -0.19582142, 0.2065464, 0.07812211, -0.17500052, 0.15831222, 0.15192445, 0.16168231, 0.0048524984, 0.007434184, -0.10135248, -0.18250701, 0.07042103, 0.045873437, 0.1714225, -0.10843117, -0.033688147, -0.119710036, -0.02927815, 0.11870673, 0.10693711, -0.014338449, 0.09006934, 0.022242863, 0.13299818, -0.09510141, 0.13222153, 0.10960805, -0.18161719, 0.22423473, 0.06876027, -0.020929683, -0.08859705, -0.16298491, -0.09123778, -0.21691452, 0.1979575, -0.07617876, 0.2552617, -0.13579132, 0.22033525, 0.018486267, -0.11179624, -0.07423925, -0.10772451, 0.12988696, -0.2630214, -0.035941675, 0.17091222, -0.16001493, -0.012889322, 0.16276903, 0.06831542, 0.19856274, -0.15279223, 0.023832856, 0.13877013, -0.15334445, -0.10495402, -0.18677239, 0.1784335, 0.1341009, 0.07997591, -0.031287298}, 
{0.117033996, -0.0110879475, -0.108746946, 0.098021515, 0.103184916, -0.028438587, -0.015420694, 0.14819741, 0.08776745, -0.04007217, -0.100028165, 0.10403832, -0.12356355, 0.02798999, 0.08513373, 0.04749168, 0.18923384, 0.09378147, -0.14387491, 0.17903773, -0.08000838, 0.058538336, -0.078029856, -0.009049101, 0.044074476, -0.011666894, 0.10738718, -0.1367102, 0.11264464, 0.18704233, -0.022495998, 0.096196875, -0.040517367, 0.1904924, 0.115619175, -0.15398206, -0.09845919, -0.047127683, -0.067923926, 0.1676611, -0.056536213, -0.06887975, 0.007977419, 0.07857304, 0.08552395, -0.0020180463, -0.10222937, 0.31294855, 0.027702203, -0.13547155, -0.0838129, -0.034021787, -0.15035073, -0.031779654, -0.085385926, 0.1036054, -0.085296154, -0.16586953, -0.12151871, -0.1442846, 0.18190245, 0.033578634, 0.3112131, 0.17206728}, 
{0.17563565, -0.1705991, -0.15118027, 0.084856965, 0.09873716, -0.11132246, -0.08706093, 0.031547047, -0.08622796, 0.026593424, -0.1490977, 0.16332601, -0.15016659, -0.16805582, 0.01473507, -0.08088976, -0.043635402, -0.025322609, -0.04013976, -0.10307685, -0.039672602, -0.09737446, -0.093245804, 0.06318292, -0.13771963, 0.17834187, -0.028808264, 0.16950248, 0.03642099, 0.1765886, 0.18035632, -0.16996889, -0.12756097, -0.13647309, 0.1446985, -0.21137014, 0.1653602, -0.18664403, -0.13060749, -0.008848229, -0.07989974, 0.115882374, 0.023080556, 0.16492666, 0.066136256, 0.020400992, -0.022989942, -0.085870765, -0.0055763535, -0.09069488, 0.09929803, 0.12794943, 0.049229063, -0.09475393, 0.10063223, -0.1582032, -0.13664493, -0.05787894, -0.07162494, -0.08362811, 0.06756569, 0.21220396, 0.023058362, -0.10449772}, 
{0.062012747, 0.13490108, -0.13459924, -0.0072890264, -0.14686184, 0.15685557, -0.088672444, -0.054838162, -0.17145851, 0.1587575, 0.18237513, 0.013176212, 0.120358825, 0.082700156, 0.118831754, -0.1589334, -0.10874469, 0.10497761, -0.09100594, -0.00919899, 0.12449271, 0.1414625, -0.06461102, 0.057352744, 0.0007511064, -0.117036015, -0.17210177, -0.038837336, -0.020922596, -0.13840343, -0.07361781, -0.10434518, -0.16061294, 0.12977944, -0.0477198, -0.19278598, 0.015100959, -0.13579138, 0.08508789, 0.17452788, -0.117231905, 0.16963018, -0.13370198, -0.023267455, -0.04392493, -0.1034583, -0.114153445, 0.13597916, 0.057256438, 0.1851039, 0.1663545, -0.14646524, -0.118310764, -0.09277414, -0.099112585, -0.09917339, -0.16693367, -0.019176597, -0.08454326, -0.24810937, -0.22166856, 0.2301309, -0.13030206, -0.16605988}, 
{-0.17408553, -0.003445676, -0.22711015, 0.13961583, 0.026520083, 0.0695945, -0.08697605, -0.12457019, 0.041901045, -0.18338788, 0.13214627, -0.12724337, -0.09051893, 0.017540285, -0.10696313, -0.09818448, -0.15527877, -0.022571735, -0.09230063, -0.089352764, 0.008077744, -0.019811727, 0.07656583, -0.110170536, 0.0041046375, 0.035193626, -0.10365844, -0.12432381, -0.09599721, 0.24668404, -0.06932058, -0.09714111, -0.08250417, -0.03638652, -0.0054326244, -0.029899089, -0.0033005953, -0.0013648733, -0.06648359, -0.0204824, 0.11613342, 0.062452555, 0.22249605, 0.050887316, -0.08669688, -0.017588964, -0.03935356, -0.18708998, 0.16963689, 0.18957868, -0.0015086794, 0.109908864, 0.13631074, -0.061112188, 0.103814654, 0.11516388, 0.15649998, 0.16302875, -0.04435941, -0.21796313, -0.12993637, -0.11611711, -0.061543744, 0.12098245}, 
{0.03592076, 0.20641926, 0.022963997, -0.20768143, 0.020172955, 0.031061605, -0.11089587, 0.15542012, -0.07790004, -0.08807498, -0.0053977533, 0.08424559, 0.07063069, 0.06269487, -0.16943732, -0.0030289313, 0.13900726, 0.11713998, 0.2002351, -0.21381105, -0.10369824, 0.08883535, -0.03358281, -0.19755344, -0.13292803, 0.122459024, 0.13265142, 0.1338663, -0.043158405, 0.16760826, 0.031775285, 0.11783363, 0.18092714, -0.074734285, 0.10807111, -0.03342538, -0.1391595, -0.06292212, 0.27150738, -0.037485186, -0.066017136, -0.17926268, 0.11517688, -0.038195234, -0.041474693, -0.0069000954, -0.19987561, -0.12938744, 0.0001777887, -0.009549472, -0.077761404, -0.13773738, 0.055520494, 0.041609317, 0.030656137, -0.080030404, 0.006205507, -0.07753882, 0.13878332, -0.038511742, 0.10325608, 0.00015058214, 0.21515524, 0.08866315}, 
{0.029951807, -0.09031768, 0.037427813, -0.10062443, -0.19352098, -0.12568137, 0.1995794, -0.15922222, 0.053049564, -0.087466694, 0.09000241, 0.1276106, -0.19752589, -0.08400323, -0.071559876, 0.11065279, -0.13245925, 0.073193856, 0.025924042, 0.14003557, -0.17325763, 0.12884496, 0.11377438, 0.10458409, -0.15224366, 0.230131, -0.048419796, 0.1867896, 0.2095646, -0.04991164, -0.08266973, 0.041037295, 0.06793489, 0.1293693, -0.10085256, -0.03033167, -0.07075527, 0.02383405, 0.11711693, -0.021646252, -0.027505424, -0.1566291, 0.17454092, -0.0884948, 0.17854238, 0.020915527, -0.09956184, -0.04680646, -0.16197668, -0.019684922, -0.07825288, -0.010817356, 0.16283864, 0.110861026, -0.19511524, -0.11223786, 0.16120316, -0.01342072, 0.06346233, 0.06893561, -0.10778765, 0.18728416, -0.2379171, -0.123083256}, 
{-0.10467471, -0.18041387, -0.33178675, -0.05297571, 0.16106622, -0.18151902, -0.18331663, 0.12121829, -0.22802544, 0.190204, -0.026460309, -0.1981756, -0.19351539, -0.064505346, -0.15411277, 0.12955502, 0.22842406, 0.07684665, 0.15489848, 0.19119576, 0.083833225, -0.049498383, 0.2736674, -0.1873929, -0.007533068, 0.08442668, 0.004053437, -0.0696438, -0.119302176, -0.14493941, 0.052603986, 0.055023637, -0.05806488, 0.13171051, -0.071648836, 0.13627142, -0.132988, 0.052136574, 0.068339474, -0.027738068, -0.18287867, -0.05867671, 0.060236793, 0.110930696, 0.02740091, 0.05362399, -0.00052116317, -0.21861325, 0.09650421, 0.19800127, 0.017933618, 0.16740057, 0.084662035, 0.18840292, -0.026390916, -0.14282311, -0.09713576, 0.21067701, 0.00868192, 0.015869327, -0.097089894, -0.12444032, 0.007864145, -0.10552924}, 
{0.017510615, -0.07498727, -0.018639937, 0.076996505, 0.11365251, 0.13734975, 0.11940612, 0.18731157, -0.20492817, -0.018087428, 0.07018636, -0.04148717, -0.091239475, -0.011765412, 0.14365101, 0.14161964, 0.20464534, -0.12809727, -0.06707839, -0.14744681, 0.27476624, -0.14799781, -0.056777433, 0.048614968, 0.105297685, -0.17064294, -0.12532419, 0.103888236, -0.12988822, -0.16769692, 0.14059465, -0.027041037, 0.057006385, 0.0017750653, 0.14928228, 0.17651683, 0.13343881, -0.033709165, 0.07467693, 0.14217673, -0.017450074, 0.05633421, -0.19895403, 0.15480623, 0.14326695, -0.12282125, -0.12125522, -0.0820432, -0.054285385, -0.062732734, 0.19663407, 0.04410902, -0.20658654, 0.18660043, -0.17732447, 0.18405193, -0.21118823, -0.09887664, 0.14381887, 0.24176355, -0.23499392, 0.09144994, -0.061263494, -0.0045302194}, 
{0.12745957, 0.2918293, -0.04289758, -0.12479626, -0.08189978, 0.12201686, -0.037334736, 0.19909409, 0.11634426, -0.025909746, 0.12654336, -0.0071120793, 0.25739715, 0.12779458, 0.21129045, -0.060644586, 0.005778717, -0.06005659, 0.058974724, 0.090342015, -0.09183916, -0.19826126, -0.13180086, -0.08270937, 0.038403302, 0.04485589, -0.07720886, -0.012169739, -0.19082579, 0.043621708, 0.15752304, 0.1853043, 0.09256838, -0.0078126015, -0.074749656, 0.07425881, -0.11731995, 0.016868187, -0.10098772, -0.053109646, 0.23790532, 0.058059614, -0.0070180795, 0.05610627, -0.10188785, -0.1446226, 0.053035017, -0.0820209, -0.110258825, 0.05889291, -0.005770147, -0.008908214, -0.10617756, 0.1223389, 0.18929751, -0.053070832, -0.21429119, 0.02169244, -0.11126229, -0.07837184, -0.01674258, 0.056615043, 0.22257955, -0.15985815}, 
{0.16848324, 0.23011164, -0.06258015, 0.18364221, -0.12283055, 0.14808717, -0.18909296, -0.13748477, -0.007530877, 0.026234549, 0.08162088, 0.20557472, -0.12182034, 0.034900963, 0.048928175, -0.037151672, 0.016120555, -0.08917134, 0.08751023, 0.078864835, -0.06485397, -0.029787647, -0.032281186, -0.11692585, 0.044953994, -0.18521081, -0.17086162, 0.06476369, 0.018202594, 0.23911361, -0.03325526, -0.041084424, -0.060052816, 0.23643163, -0.19433224, -0.065086894, 0.061474282, -0.09160586, 0.13080373, -0.039305575, -0.06623519, 0.094171256, -0.116518915, -0.11360203, 0.050794195, -0.09563581, -0.16926035, 0.09487091, 0.14289263, 0.10847897, 0.15469743, 0.10108948, 0.028248642, -0.05337972, -0.0024930837, -0.061144028, 0.13946365, 0.16693525, -0.101758055, -0.15924215, -0.06477919, 0.06580993, 0.25480402, 0.033183176}, 
{0.019212151, 0.06422393, -0.046550464, 0.055093557, -0.11190003, 0.10785178, -0.008211528, 0.16147862, -0.1380485, -0.06547002, -0.13187642, 0.17986041, -0.03432892, -0.08342815, -0.021368036, -0.11324713, -0.017453097, -0.053562887, -0.04110321, -0.14817086, 0.14654669, -0.1163274, -0.12008242, 0.013280749, 0.042786136, 0.030625943, 0.09847982, 0.15415765, 0.06404756, 0.28661796, 0.110496305, -0.12331239, 0.062330525, 0.14830074, 0.10485631, 0.02157052, 0.09493147, -0.11661548, 0.0022382133, -0.014652818, 0.20858996, -0.14936353, -0.15831523, -0.079288825, 0.0441233, 0.042711634, 0.126913, -0.023668095, 0.04624119, 0.15056148, -0.08657122, -0.14512523, 0.0067299823, -0.16763383, 0.03305467, 0.1470966, -0.048631955, 0.15826389, 0.010698916, -0.0028459863, 0.072253294, -0.09483114, -0.05401559, 0.076440394}, 
{0.047239725, -0.017930552, -0.0029611755, 0.16672319, -0.15460634, -0.23408933, 0.12287814, 0.05052879, -0.025128713, 0.07248575, -0.017363032, -0.019494686, 0.03245746, 0.020647328, 0.023717716, -0.06469819, 0.10752336, -0.106368884, 0.13788223, 0.09467772, -0.13024369, 0.18156056, -0.06407104, -0.18916647, 0.17017949, 0.042854793, 0.12630905, -0.09642692, -0.16427764, -0.08228428, -0.13014372, -0.11163656, -0.01220998, 0.15211995, 0.010880507, -0.2139724, 0.16508211, -0.005147054, -0.14467347, 0.14821857, -0.1314616, 0.07298941, -0.12148059, 0.07164776, -0.1749077, -0.08157966, -0.040751435, 0.06941113, -0.16292994, 0.04558924, 0.006613492, -0.16035958, 0.16349573, -0.04018354, 0.05337773, 0.19126886, 0.18466857, -0.13547872, -0.033777714, 0.043768488, -0.06845075, 0.019559504, 0.060713746, 0.11749602}, 
{0.2576212, 0.066775694, -0.09217881, -0.0050476547, 0.08604083, -0.18209134, 0.11913122, -0.02742669, 0.17364304, -0.071752645, 0.088808104, 0.024400618, 0.1709092, -0.06996338, 0.16776176, 0.085168526, -0.025812471, -0.012223899, 0.17381114, 0.13440183, 0.07197155, -0.13129544, -0.12516399, -0.13492675, 0.17446555, 0.14414941, 0.18458739, -0.17539638, 0.00791544, 0.13967316, -0.014648497, 0.084762156, 0.005077378, 0.14839686, 0.08333971, -0.0998464, 0.14778432, 0.016091857, 0.011434459, -0.1694951, 0.20408075, 0.053995676, -0.19313967, 0.16371581, 0.099729486, 0.09255357, -0.05932634, 0.026678953, -0.22421506, -0.048249427, 0.14183694, 0.00106277, -0.08329095, 0.23064384, 0.07543676, -0.0658178, 0.015026471, -0.054099523, 0.119590655, -0.07070822, -0.2349004, 0.15339649, -0.17315173, 0.031061778}, 
{-0.030281518, 0.055189565, -0.1775216, 0.15474455, 0.12822945, -0.09950951, -0.17815155, -0.09265853, 0.10669692, 0.0037070897, 0.0037572247, 0.053377982, 0.13315912, 0.21311446, -0.091857195, -0.23212406, 0.15308367, -0.13026462, 0.15466131, -0.12609765, -0.0642899, -0.017645905, -0.107967995, -0.15229514, -0.10767945, -0.12007202, 0.20373936, 0.23614499, -0.10502818, -0.012958097, 0.0085548125, -0.06469392, 0.15197526, 0.18249193, 0.12131455, -0.10925145, -0.13785969, -0.06876552, 0.11952347, 0.049234424, 0.023283431, 0.16939177, 0.038969792, -0.026817203, -0.11396647, -0.052227195, -0.13758212, 0.14484894, 0.11396332, 0.051668197, 0.05784378, 0.1753196, -0.045695826, 0.17572454, 0.1671545, 0.14054899, 0.0064775995, 0.20798938, -0.12240862, 0.021197297, 0.16559124, 0.11358193, 0.14292814, -0.028209912}, 
{0.083997786, -0.057713132, -0.13597116, -0.13806161, -0.016652357, -0.051073503, 0.07463215, 0.080343135, 0.17661338, -0.019094072, 0.030281423, 0.13208552, -0.0527992, 0.18496658, -0.049712636, 0.02086585, -0.112263314, -0.17298587, 0.06750506, -0.059938733, -0.04231392, 0.0701657, 0.15349834, -0.22912617, 0.08276181, 0.13821663, 0.10010396, 0.011710951, -0.08469963, 0.20130877, -0.03448037, 0.028794995, -0.008690425, 0.16323523, 0.13058442, -0.053468395, -0.10691111, -0.0742619, -0.10349396, -0.015067762, 0.017316809, 0.15162349, 0.058987815, 0.13822435, -0.10803133, 0.08936773, -0.014917819, 0.16395167, 0.029551676, 0.029503347, 0.13424781, 0.07939146, -0.0690928, -0.04499595, 0.19292141, -0.10051167, 0.017608374, -0.042579547, 0.046534933, 0.14924654, 0.084223874, -0.025342716, 0.13742293, 0.192397}, 
{-0.059412476, 0.054732528, -0.11819379, 0.07006717, 0.16887143, -0.07714566, -0.1181935, 0.013962091, -0.02745358, 0.010150138, -0.18444985, 0.13151659, -0.18423945, -0.09291652, -0.2081954, 0.03848736, 0.016407471, -0.14650057, 0.16124743, -0.08810413, -0.05208748, 0.14292268, 0.00097686, -0.12773828, -0.14222991, -0.11579335, -0.061572377, -0.1513075, 0.20949976, 0.16241767, -0.121727146, 0.0374986, 0.2328444, -0.0774493, -0.012037115, 0.092443705, 0.05175607, -0.14113711, 0.0041826013, -0.09826889, -0.062463205, -0.22027798, 0.20248836, 0.17177409, 0.08592273, -0.11692003, 0.1308023, -0.01881519, -0.1077646, 0.13722971, -0.07106314, 0.15204394, -0.08379433, -0.048026174, -0.16178991, -0.028989049, -0.11151565, 0.03020871, -0.06302454, 0.07082718, 0.1457797, 0.11697598, -0.15957092, 0.08719568}, 
{-0.036373407, 0.2047309, 0.0027931568, 0.094336405, 0.15476699, 0.059220795, -0.19228251, 0.15119965, -0.08634896, 0.047913212, 0.042599365, 0.030954424, -0.06370084, -0.19539161, 0.1316851, 0.09946734, 0.20223583, -0.11693549, -0.11478915, 0.061039787, 0.1624695, -0.06936122, 0.15776627, -0.013149395, 0.11036901, -0.090976685, 0.19720419, -0.24236028, 0.107242316, 0.15669271, -0.14514051, 0.20707898, -0.0989823, 0.07895023, -0.16990428, 0.21211353, 0.08304026, -0.042491216, -0.08779791, 0.1735315, -0.042238012, 0.024362788, 0.1581838, 0.027500635, 0.116515286, 0.1650725, -0.08904553, -0.03622968, -0.114303656, -0.080027156, 0.110992126, 0.005600499, -0.10066898, 0.104823284, -0.19723113, 0.114174575, 0.00342821, -0.03217247, -0.22263975, -0.03160008, 0.008780666, 0.1307002, -0.14429498, -0.0076847943}, 
{-0.11973375, 0.22938524, 0.04637593, 0.06690627, -0.19390935, 0.09708948, -0.05323311, -0.041727353, -0.13142204, 0.11225209, 0.06689236, -0.12599723, 0.1845044, 0.13348112, 0.056352545, 0.28222048, 0.2308976, 0.08103024, -0.05158922, 0.024103826, 0.0700524, -0.049286086, 0.011346254, -0.16909528, -0.053916384, -0.10690339, -0.07216625, 0.107005976, 0.06646971, -0.07236668, -0.14701112, -0.07058434, 0.053844225, -0.05740037, -0.12896118, 0.08301289, -0.008315657, 0.1605962, 0.05051002, 0.030299928, 0.17917472, -0.060662434, 0.04420224, -0.087919846, -0.14246325, 0.15976112, -0.16918893, -0.1048227, -0.01979675, 0.22925407, -0.097513594, 0.056777507, -0.0046245274, 0.11296452, 0.112699844, 0.038451195, -0.13491412, -0.027131645, -0.167692, -0.06750485, -0.13677467, -0.1543802, -0.13297015, 0.046926185}, 
{0.14559135, 0.06659968, 0.13514867, -0.017330272, -0.19092202, 0.07810824, 0.086705446, 0.04823619, 0.14820804, -0.014479424, 0.1447635, -0.03597221, 0.106409594, -0.097537436, -0.07526223, -0.014917571, 0.060884655, 0.08871165, -0.0008336709, 0.16147844, -0.06128054, -0.16315259, 0.08039884, 0.106799014, 0.22091714, -0.22776768, -0.17932881, -0.13492285, -0.07892358, 0.077502884, -0.13978082, -0.0905924, -0.1678782, 0.048069313, 0.15766911, 0.08126668, 0.21842967, 0.057789523, 0.26046652, 0.007823253, 0.1679977, 0.18257725, 0.07847581, 0.121950686, -0.12496101, -0.01901421, -0.088203445, -0.22848849, -0.060065966, 0.0055025527, -0.13912927, 0.05535695, -0.19700688, 0.09599902, -0.15440378, 0.16165139, -0.19830327, 0.12806325, -0.15112995, 0.15840217, 0.11055777, 0.09726159, 0.0832335, 0.017626958}, 
{-0.12428178, 0.19221884, -0.14435907, -0.044765655, 0.0899983, 0.10853497, -0.0069816206, -0.018474676, 0.06125586, 0.08312283, -0.14918098, 0.041136354, 0.16798215, 0.060957316, -0.077980116, -0.16892937, -0.09836922, -0.1042778, 0.08135583, 0.13596754, 0.060935777, 0.051438596, 0.06944403, -0.010468111, -0.047236167, 0.019301934, -0.16711769, -0.121019274, -0.12935539, 0.15451941, 0.094018534, 0.12083983, 0.18823555, 0.16488586, 0.15484308, -0.23569907, 0.124407895, -0.16300328, 0.078913145, -0.07071433, 0.19736476, 0.08777265, -0.19464462, 0.08211582, -0.20345777, -0.03024763, 0.08504146, 0.18762423, -0.09867258, 0.017084703, 0.05639533, 0.15751879, 0.07718283, 0.12439279, -0.18749748, 0.13756564, -0.010125107, 0.15326962, -0.028130185, -0.0020627044, -0.067545936, 0.08364814, -0.019601364, -0.10423091}, 
{0.17024583, 0.10573032, -0.0012490981, 0.12572604, 0.01094909, 0.15256059, -0.077885464, 0.08177792, -0.035055842, -0.14816044, 0.0061414377, 0.21541035, 0.106917, 0.042388536, 0.21709193, 0.13469422, -0.040721558, 0.020804401, 0.019063145, -0.16144067, 0.034697235, -0.068701096, -0.21601322, 0.015303914, -0.1122033, 0.0421529, -0.117355525, 0.19753467, -0.01227291, 0.10005559, 0.0072366237, 0.21041343, 0.11192963, -0.13012873, 0.044193424, -0.0010671727, -0.02243711, 0.16691697, 0.094494626, -0.009589982, 0.060117632, -0.15793064, 0.13632056, 0.19979912, -0.10437973, -0.06718181, -0.18824495, -0.043844394, 0.0018453469, 0.123692594, -0.124013886, 0.15481535, -0.07360877, -0.06348107, -0.15753275, 0.010177085, -0.1838409, -0.0046653603, -0.3178571, -0.22220315, -0.20498513, -0.11391788, 0.20905098, -0.16733329}, 
{0.0456393, -0.05189413, -0.019185005, -0.08493301, 0.08044925, 0.05787728, 0.11349744, 0.009781774, -0.085980535, 0.010146839, -0.0059287753, -0.1542013, 0.10279472, -0.111261554, -0.018794302, 0.27503958, 0.18107268, -0.09441415, 0.1267489, 0.15816508, -0.0076452056, -0.06812563, 0.16111141, -0.24041234, 0.12069252, -0.026628347, -0.071282186, -0.12104214, -0.06891912, 0.1253556, 0.16500276, -0.02600362, -0.012935755, 0.21362469, 0.09853141, -0.22763695, -0.018094894, -0.16878408, -0.21631627, -0.011110133, 0.048510678, -0.049551662, 0.06608887, -0.047595292, 0.12666222, 0.09702481, -0.08306091, 0.21828729, -0.00036797725, 0.22569725, -0.1470536, 0.1599423, -0.21625014, 0.13870694, -0.14478554, 0.058106333, -0.1736686, 0.03198951, 0.04412754, -0.11195875, -0.017617907, 0.034994457, -0.23756683, 0.18214697}, 
{0.23726878, -0.16010484, 0.0222892, 0.016060323, 0.16679655, 0.14712079, -0.13938263, -0.2776019, -0.10974356, -0.06639061, 0.09636427, 0.13110738, -0.039518267, -0.055668727, 0.15513937, -0.07488244, -0.012352394, -0.23837933, -0.06423247, -0.09727498, -0.077565774, 0.12078464, -0.03467779, -0.11946837, -0.062093593, -0.099874765, -0.045057137, -0.12142819, -0.138346, 0.12047552, -0.08856758, -0.08244366, -0.21418147, 0.00928802, -0.03152111, -0.21445487, 0.014678821, -0.24917054, -0.21695979, 0.04667242, -0.07036243, 0.1470096, -0.03709942, 0.111537546, 0.06570851, 0.08418753, 0.07948772, -0.016240388, -0.023716921, 0.019917602, -0.101575, -0.11821667, -0.0045533585, -0.08160815, 0.079253726, 0.2477373, 0.022535201, 0.16502027, -0.29542837, 0.05238875, 0.12867428, -0.07373562, -0.009464763, 0.0046418626}, 
{0.18687661, -0.035458576, -0.0428894, 0.22035705, 0.02388347, -0.0024357433, -0.04694001, -0.1860834, 0.20393072, 0.096794486, 0.17271797, -0.0817531, -0.0475373, 0.06596083, 0.17776932, -0.08989396, 0.14709361, 0.108450904, -0.14276712, -0.21508917, 0.07096296, 0.18590054, 0.046122655, -0.25488895, 0.1852784, -0.1338534, 0.05592014, 0.037179317, -0.16511217, -0.0015322375, -0.061202686, 0.11968719, 0.046490055, -0.09771619, 0.05742633, -0.027144233, -0.01524795, 0.0852302, -0.10419983, -0.019360166, -0.13708328, 0.035906162, 0.07708776, -0.0841315, -0.14470075, -0.082516216, -0.104089186, 0.16761449, 0.08436789, -0.059124164, -0.17344517, 0.19177482, 0.11299066, -0.09052085, -0.0030325076, 0.04851512, 0.06600974, -0.0006092331, -0.27369198, -0.3105319, 0.13483652, 0.14325786, 0.06934311, 0.20101286}, 
{-0.1681443, 0.06157567, 0.13425332, -0.13130212, -0.14659826, -0.008648919, 0.10243665, -0.23905425, 0.17219001, -0.08175501, -0.08384889, -0.26000687, -0.028423619, -0.027394285, 0.02400523, -0.15449119, -0.056490827, 0.15733588, 0.1516834, 0.14445576, -0.02457299, 0.14504085, 0.2533739, -0.15104032, -0.09015506, -0.03359358, -0.0701009, -0.12429102, -0.13401045, -0.05444844, 0.16493914, -0.15660831, -0.05630473, 0.091821775, -0.16785614, 0.18686043, -0.15811765, -0.010161205, 0.036533676, 0.1366839, -0.008624466, 0.0043378295, -0.075065754, 0.07167823, 0.16677631, -0.094283745, 0.12667726, 0.003056445, 0.15906353, 0.16805093, 0.15842009, 0.16071236, 0.09137966, 0.05872551, 0.22097383, -0.085808404, 0.115714505, 0.08825344, -0.22112492, -0.049027156, 0.117978394, -0.07929798, -0.14828116, 0.14045006}, 
{0.055362996, 0.052580204, 0.14481352, -0.18464898, -0.10035, -0.11787383, -0.14684962, -0.12946348, 0.07423492, 0.09191062, 0.17104472, 0.022173284, 0.096965864, -0.028491555, 0.02061248, -0.020666635, -0.06716766, 0.09565402, -0.098613456, -0.14390998, 0.043480836, 0.10160051, 0.05163242, 0.081242755, -0.21425614, 0.036746606, -0.09119039, -0.19299749, -0.048529577, 0.18013345, -0.2110844, -0.08272845, -0.06277368, -0.18491165, 0.123432115, 0.033742968, -0.0071383407, -8.208963e-05, 0.016606105, -0.07499862, -0.0034086618, -0.26703203, 0.04527137, -0.1360237, -0.0538342, -0.015824044, -0.20601438, 0.16110067, 0.08613139, -0.16309948, 0.16137508, 0.1095883, 0.054015275, -0.026846915, -0.19563283, 0.10545008, -0.047822136, 0.052190017, -0.21630709, -0.021286506, 0.11380937, 0.06996443, -0.021536672, 0.14596923}, 
{-0.19467689, 0.1023036, 0.21156815, -0.12172276, -0.12550229, -0.18897317, -0.06389048, -0.06829825, 0.099912025, -0.009982414, -0.07434406, -0.10633792, -0.20479198, -0.106890045, 0.09663696, 0.24934201, -0.0099014295, 0.033695843, -0.06838726, 0.1931892, 0.05736346, -0.075664334, -0.1250023, 0.064090416, 0.009539028, 0.09717994, 0.024586996, -0.27414405, 0.10008864, -0.12612638, 0.039078083, 0.14321518, -0.046786845, 0.13719454, -0.07253198, 0.22974987, 0.15417548, 0.21300195, -0.13783257, -0.123939425, -0.13703309, -0.22769263, -0.07957348, 0.09096676, 0.1716331, -0.07572557, 0.09869132, -0.041330587, 0.14563885, 0.15172958, 0.11416666, 0.119946145, 0.13428602, 0.07830641, -0.058638554, -0.05583213, 0.21237926, -0.06380571, -0.15625532, 0.22540995, 0.02502214, -0.0010224185, -0.15581934, 0.12887482}, 
{-0.067806624, -0.021773111, -0.057562195, 0.1170436, -0.049437713, -0.11493062, 0.054512158, -0.19243747, 0.14725527, 0.18055512, -0.04674698, -0.08374901, 0.10263831, -0.04244075, -0.20431836, 0.1333528, 0.101140864, -0.047457624, -0.16821189, 0.039746836, -0.06045945, -0.056657173, 0.036030475, 0.075296864, -0.19530734, 0.05103741, -0.14353463, 0.02354027, -0.13600795, -0.07423169, -0.24034789, -0.13477097, 0.0380725, -0.0787357, -0.03811775, 0.010728787, -0.08731678, 0.008585517, 0.10958446, 0.16672054, -0.14656843, -0.14359218, -0.079119675, -0.09409749, 0.20070088, 0.05047558, 0.06825228, -0.27325398, 0.01705139, -0.13005248, 0.0638183, 0.06683628, 0.016991355, -0.10556447, -0.20593412, -0.01667576, 0.04981357, -0.030015046, 0.11001388, 0.09327068, 0.18497808, 0.016386688, -0.08492617, -0.027248554}, 
{0.10679176, -0.05827439, 0.14849405, -0.05175483, -0.019467188, 0.12033723, 0.1846554, 0.068588465, -0.04974964, 0.18559994, 0.19704491, -0.02553049, 0.05949418, 0.20504911, 0.10417873, 0.18779045, 0.10521295, 0.17955008, 0.13911021, -0.19406773, 0.13924827, 0.12129673, -0.08294414, 0.24301055, -0.14743361, 0.036184452, 0.042285834, 0.048570257, 0.052371744, 0.14705217, 0.083965786, 0.015093407, -0.17173237, -0.1138822, -0.16871582, 0.049423724, 0.11331225, 0.25338358, 0.2401253, -0.13534495, 0.06886375, -0.08213878, 0.11872163, -0.14299963, 0.1764831, 0.09553339, -0.15093733, -0.28526914, -0.00479877, 0.1731929, -0.04615873, 0.07968679, -0.13526802, -0.119394384, -0.025741754, 0.19031177, 0.014810065, -0.07614877, -0.057960976, 0.1440402, 0.007868954, 0.096184686, -0.06905093, -0.17090237}, 
{0.15221058, -0.097871594, 0.010254284, -0.121028, -0.15979034, 0.09998096, -0.093414165, 0.03324636, -0.02792804, 0.12173831, -0.083839044, 0.078033134, -0.036364857, -0.08146946, 0.10769791, -0.08722686, -0.13734451, 0.12292652, -0.04368789, 0.1356879, -0.006239982, 0.08033251, -0.046515077, 0.0036634286, -0.15143459, 0.032368485, 0.066523716, -0.06728267, 0.12466998, -0.09353259, 0.18813396, 0.19070522, 0.08394335, 0.22127987, 0.067921065, 0.055969905, -0.1248706, 0.17985985, 0.0118237855, -0.03240652, 0.17984009, 0.02004332, -0.09110472, -0.09994278, 0.016054174, 0.1922999, 0.0823304, 0.09197432, -0.20199387, 0.014587833, 0.124264374, 0.058197178, 0.028860029, -0.13162369, 0.04274494, 0.11028959, 0.050772317, -0.101896346, -0.40671188, -0.19407491, -0.07890181, -0.14718789, 0.14649186, -0.008677504}, 
{0.12724675, -0.1722703, 0.23078403, -0.018309517, -0.19326642, 0.017838713, -0.0931035, -0.11586837, 0.0067374823, -0.006876654, -0.0989062, 0.026454872, -0.076360226, 0.15340455, -0.041736115, -0.023767909, -0.024459347, -0.24340327, -0.09668254, 0.24358992, 0.15513167, 0.12713496, 0.08531475, 0.2509375, -0.02149368, 0.06856652, -0.16003366, 0.019986063, -0.12227701, 0.12553824, 0.25981244, -0.016194448, -0.047606606, -0.017614275, -0.13483132, -0.027553026, 0.2204125, 0.04313258, -0.0126790395, 0.014876034, 0.09675875, 0.059547707, -0.1955395, -0.11458799, 0.13074219, 0.0067753503, -0.104565226, 0.08576797, 0.12345306, 0.003300432, -0.07454794, 0.23581633, 0.054872315, 0.09926545, -0.10016801, 0.2564658, -0.20597361, 0.03591369, -0.15354119, -0.023698192, -0.037282802, -0.04015305, 0.009027366, -0.069526255}, 
{-0.12429645, -0.21222639, -0.1527512, 0.09083685, -0.15001771, 0.15360592, 0.026134677, 0.049214024, 0.10498904, -0.058086198, 0.05100688, 0.1288622, -0.11250313, -0.050296325, -0.038120564, -0.014783416, -0.10365911, -0.053034503, 0.16075666, -0.12691033, 0.15193143, -0.13215993, -0.10509933, -0.18578745, 0.18221371, -0.14256355, -0.0588572, 0.05500672, -0.14692162, -0.20991226, 0.15063725, -0.012454236, -0.0065881843, 0.014485801, -0.0058898544, -0.1783862, -0.028508289, -0.17955433, -0.04003479, -0.00604649, 0.08654006, 0.029847743, -0.17297472, -0.097006015, 0.15453613, -0.063447915, 0.023254838, 0.29025856, 0.053324863, -0.09910813, -0.169949, 0.10292843, 0.00041384465, -0.09536879, 0.04385891, 0.14168599, -0.17717172, 0.17306337, 0.05909073, 0.030956713, -0.21019116, -0.082552955, 0.026871596, -0.087581426}, 
{0.26383758, 0.005201449, -0.24862128, -0.07216027, -0.034844633, -0.04880219, -0.10566802, -0.17249455, -0.05550399, 0.062297978, -0.016081931, 0.10501227, 0.031143004, 0.09165665, -0.0140700415, 0.19999333, 0.0467194, -0.17237738, -0.15451033, 0.081966095, 0.16012822, -0.22654322, -0.0025471027, -0.18221739, 0.1643588, -0.19009961, -0.13808185, 0.002563606, 0.030314386, -0.10790499, 0.07131009, 0.041737203, 0.10943638, 0.0046991576, -0.036951214, -0.3112443, 0.043660536, -0.13687304, -0.07302178, -0.06445157, -0.025264654, 0.16354948, -0.14285122, -0.08814956, -0.03300359, 0.012219494, -0.15394463, 0.03143536, -0.19271955, 0.111146145, -0.004245578, 0.16886804, -0.015351583, -0.067746416, 0.17295238, -0.040374443, -0.023442954, -0.002291328, 0.13741308, -0.08919606, -0.04254422, -0.03399615, 0.18163894, 0.069803506}, 
{-0.13765259, -0.08423121, -0.025275417, 0.17724146, -0.0431381, 0.0046635326, 0.13095218, 0.022087017, -0.10551816, 0.18357722, 0.087548934, -0.17396212, 0.05693483, -0.049495187, -0.14261949, 0.01886257, -0.05952082, -0.17398936, 0.0574565, -0.0069335024, -0.08976034, -0.14587885, -0.18592623, 0.066361316, -0.037736125, 0.076646075, 0.07428159, 0.058609735, -0.15965629, 0.038062144, 0.16083558, -0.19233674, -0.052013338, 0.023718916, 0.14514199, -0.02452203, 0.016250456, 0.05480099, -0.008886091, 0.15108731, 0.057168785, 0.032605086, -0.20295367, 0.14647712, -0.10890321, 0.01801818, 0.10292056, 0.017037774, 0.078601114, -0.12978686, 0.0532834, 0.019338828, -0.10308645, -0.13687852, 0.26263613, 0.08847948, -0.12959173, -0.15238574, 0.01305282, -0.26110315, -0.12755392, 0.047260564, -0.02321011, 0.066387646}, 
{0.03781793, 0.050215926, -0.13519286, 0.12785834, -0.17305297, 0.0057061287, -0.13685684, -0.053734284, 0.05814589, 0.13802917, 0.19445705, -0.113414735, -0.061577573, -0.11520299, 0.078964174, -0.18188256, -0.04256544, -0.10578991, -0.18457057, 0.16316816, 0.19090751, 0.20920818, 0.17036529, -0.2074035, -0.08806063, 0.1997921, -0.13963272, -0.08057228, 0.13409391, 0.0057768477, 0.18531251, -0.12752967, 0.14191963, -0.11572129, 0.04555994, 0.069723405, -0.15552756, 0.023550548, -0.06987117, 0.17059347, 0.15038447, 0.21614112, -0.09815105, 0.13505399, 0.13581498, -0.16452086, 0.150129, 0.0032886437, 0.119814806, -0.16315152, -0.05803615, -0.05680619, 0.10368495, 0.09077358, 0.023749929, -0.06333355, 0.09210367, 0.080639236, -0.1536624, -0.1229594, 0.05862378, 0.1684485, 0.1284893, -0.16625969}, 
{-0.15007879, -0.16912453, 0.08815278, -0.01628692, -0.018568853, -0.079007916, 0.1295721, 0.0841504, -0.052799746, -0.17626128, 0.09421316, -0.07185025, 0.12920566, -0.021197459, 0.048102252, -0.050093953, -0.07261189, -0.07453756, -0.13580365, 0.09247916, -0.11888748, 0.09960573, -0.026965484, 0.10391405, 0.0521445, 0.2319541, -0.057559375, 0.07889972, 0.22906697, -0.18550901, 0.16333684, 0.1524136, 0.017428376, -0.05068304, 0.13439299, -0.043584295, 0.074546576, 0.18807478, -0.036551625, -0.082341105, -0.15441827, 0.092985496, -0.05832205, -0.07594658, 0.2089328, -0.075659476, -0.06790988, -0.097081736, 0.20541696, -0.13218251, -0.07428773, -0.19103934, 0.08796214, -0.10019252, -0.021456854, -0.0842644, 0.2345253, -0.09881463, -0.073486656, -0.06985729, 0.10489306, -0.04191824, -0.21066593, 0.103635795}, 
{-0.14561448, -0.21603812, 0.13860664, -0.1830172, 0.06609581, -0.2507985, -0.033881154, -0.075381696, 0.0024153418, -0.15216967, 0.010938868, 0.16700295, 0.08714868, -0.05210234, -0.14631622, -0.11277725, -0.031858277, 0.20547444, 0.032929853, -0.084939346, -0.08568978, 0.031114006, 0.0027271418, 0.31648645, -0.0139697725, -0.002964949, 0.055145156, -0.0064658914, -0.073123895, -0.19254501, -0.0622043, -0.19401814, -0.14920218, -0.121859305, 0.11389598, 0.2354216, 0.122345924, 0.1484655, -0.16872798, -0.10808943, -0.06268997, 0.08312412, -0.0160086, 0.10781214, -0.080484815, 0.07011337, -0.104289494, -0.048108675, 0.1788809, 0.06995732, 0.0035988067, -0.17611259, 0.1635231, -0.03277228, -0.21743977, -0.07295162, 0.077699915, -0.1539141, -0.12192123, 0.12881786, 0.1880901, 0.02400674, -0.098779075, -0.094803974}, 
{-0.14115681, 0.008060945, 0.21613286, 0.032825023, 0.089696534, 0.059033927, -0.106633365, -0.17067969, 0.054129597, -0.06040607, 0.07412708, 0.087306306, 0.06802359, 0.13016807, -0.045771435, -0.18761094, 0.13713379, 0.11975431, -0.18255515, -0.054634392, -0.04729257, 0.0380893, -0.23425415, 0.16376157, 0.03321393, 0.026524281, -0.065583155, 0.057392046, 0.16194823, -0.21974492, -0.037245017, -0.049065568, 0.15054598, -0.032196276, -0.1516407, -0.045223624, 0.052517433, 0.14821318, -0.11357442, 0.09361372, 0.011248114, -0.13981721, 0.12762353, 0.16972598, 0.15733705, -0.17777465, -0.053535793, -0.26884654, -0.018106272, -0.15240799, 0.16004324, -0.14247414, -0.103430554, 0.15739691, -0.0915992, 0.19469169, 0.12965125, 0.15922968, 0.17050117, -0.2674461, 0.18411997, 0.096458815, -0.09329624, -0.1881566}, 
{0.02450214, -0.024625253, 0.08212366, -0.09995108, -0.14147598, -0.09207327, 0.07207134, -0.09636131, 0.09522482, 0.008713236, 0.011966252, 0.02029851, -0.085588425, 0.1597824, -0.08906864, -0.026430257, -0.1637626, -0.024385156, -0.064099595, -0.050424993, 0.022487225, -0.17287564, -0.049828645, 0.29099143, -0.07139904, 0.11890404, 0.004912287, 0.06967103, -0.12590565, -0.1485214, 0.101281345, -0.21232657, 0.13845323, 0.18279357, 0.06177908, 0.01343075, 0.083138116, 0.0665166, -0.12714514, -0.09485559, 0.2757748, -0.11022148, 0.07216255, -0.0901717, 0.15238217, -0.16290954, 0.15216678, -0.1336662, -0.1580414, -0.12411511, -0.18827121, -0.14782593, -0.0748572, -0.05001242, -0.0051354975, 0.18321422, 0.20664783, -0.016248569, -0.12865137, -0.31161812, -0.06688372, -0.008874051, 0.10262097, 0.020941017}, 
{0.05819913, 0.16052336, 0.011237343, -0.034591034, -0.18959759, 0.004817963, 0.1287668, 0.09526873, -0.037393462, 0.096781574, 0.11084388, 0.019459676, -0.056271277, 0.15799761, 0.16181646, -0.06300973, 0.11789073, 0.09859725, -0.04775989, 0.16266017, -0.11191795, 0.03309828, -0.17177938, 0.22434361, 0.066147625, -0.1491224, 0.0440284, -0.15711747, 0.116365224, -0.06129352, 0.09449001, -0.15271142, 0.013967537, -0.01347956, 0.118086316, -0.13819806, 0.06933052, 0.07304848, 0.089660525, -0.11233372, 0.0630522, 0.09625932, 0.059293386, 0.12498997, -0.1042002, 0.10294241, 0.033002216, -0.11425635, 0.020382818, 0.18109588, -0.2105386, -0.0593895, 0.06250372, -0.13923164, 0.029863238, -0.030816576, 0.1531028, -0.14733663, -0.14732693, -0.014149375, 0.08713559, -0.12710536, 0.20471883, -0.23863523}, 
{0.073438056, -0.08737998, 0.06503465, -0.017263163, -0.10372569, 0.02005842, 0.06869696, -0.064817354, 0.10488727, 0.11632941, 0.061771296, -0.07364534, 0.09536624, -0.0025045564, 0.20888717, -0.070620656, 0.122722596, 0.06626703, 0.02566693, 0.08527577, 0.15393132, -0.11271737, -0.19326407, 0.14949776, 0.22266608, -0.11726312, 0.16999824, 0.10124776, 0.12264183, -0.037246004, 0.011474397, 0.023764767, -0.055145986, -0.13097578, 0.1473338, -0.09738215, 0.10599732, -0.044524662, 0.21275164, -0.057298195, 0.08399439, 0.21648353, -0.031988356, -0.06326508, 0.11713719, 0.035318173, 0.051052976, 0.042688385, -0.09444469, 0.12758341, 0.16577198, -0.046678487, -0.19402356, -0.16056056, -0.14243709, 0.22270855, -0.029434277, 0.08563062, 0.09989859, -0.011941403, 0.08839794, 0.1148679, 0.2183233, -0.11282402}, 
{-0.005904785, 0.09502558, -0.18119536, -0.14362735, 0.08305376, -0.10848963, -0.07836523, 0.11484807, -0.013861524, 0.059546534, 0.009400709, -0.033807293, 0.11391164, 0.08375563, 0.033565965, 0.1552645, 0.15725936, -0.14809543, -0.08198056, 0.080426924, 0.08427625, 0.024957297, 0.05768245, -0.044207845, -0.12370725, -0.10321329, -0.003510537, -0.085644886, 0.0934327, -0.21409474, 0.22013365, 0.012895279, -0.030748893, 0.025053263, -0.1594102, -0.18599096, -0.12866749, 0.05831356, 0.08807478, -0.13214715, -0.12815234, -0.06431427, -0.045356065, 0.15063569, 0.1185478, 0.14865282, 0.12335302, -0.036056228, -0.21689174, 0.16290346, -0.09932875, 0.14128466, -0.03162787, 0.19138499, -0.08899926, 0.035176322, 0.16296794, -0.020431923, -0.02164545, -0.13657564, -0.13003623, -0.10927555, 0.07727038, -0.0095414175}, 
{0.071597286, 0.10459112, -0.06534574, 0.008583884, -0.085078545, -0.10125083, -0.15176347, 0.074714616, -0.11864685, 0.21576016, 0.07946517, 0.06480827, 0.006985412, 0.29549238, 0.03328318, -0.070721455, 0.05304358, 0.15778516, 0.060962304, 0.020653542, -0.06694185, -0.09611226, 0.07688924, 0.11132989, 0.1596654, 0.080531366, 0.06727513, 0.06748097, 0.012233928, 0.02670064, 0.22692257, -0.13499676, -0.034093894, 0.027909886, -0.01040659, -0.23946214, -0.14085278, -0.20058645, 0.02052199, 0.07906764, 0.14445081, 0.22210684, -0.06956618, 0.032437325, -0.08321572, 0.07772797, 0.13219, 0.19324858, -0.21258362, 0.032648046, -0.047776103, 0.1950789, -0.0676073, 0.1851716, 0.2151118, 0.038716886, 0.04999006, 0.125228, 0.074788705, -0.0967892, 0.08638289, -0.02169792, -0.08883397, 0.16817674}, 
{-0.062137935, 0.011419796, -0.08353722, 0.12828796, -0.19240776, 0.023646146, 0.0012181507, 0.1151421, 0.1009594, 0.18300928, -0.012583264, 0.17496069, 0.009329151, 0.01790269, 0.03547081, -0.12631983, 0.14108083, -0.14928056, 0.121101364, 0.17276819, 0.16404039, 0.102252096, -0.002338939, -0.24934733, -0.05491896, 0.13310118, 0.13276371, -0.0796666, 0.022938143, -0.03382478, -0.13156506, 0.1405997, -0.20293711, -0.15661028, -0.09734331, 0.0678785, 0.0957067, -0.11408962, -0.0874744, 0.13026744, -0.060901098, -0.048937283, -0.052483473, 0.048767608, 0.12550871, -0.03338279, 0.017364556, -0.12008037, -0.0955057, -0.15219949, 0.104443625, -0.09936915, -0.0018886302, -0.1363989, 0.25456825, -0.06336933, -0.013853041, 0.017663496, -0.09452785, -0.20897664, -0.0029019222, 0.14334807, -0.08677562, 0.0912769}, 
{0.15671882, -0.19382584, -0.013539716, 0.00029267176, 0.16284682, -0.06609256, -0.07890201, 0.062380623, -0.03347143, 0.08132366, 0.08786298, -0.0818984, -0.1809072, 0.03963313, 0.17231646, 0.05535121, 0.0034164228, -0.014281407, -0.053377733, 0.17477131, 0.1584162, -0.12610248, -0.004968452, -0.20087183, -0.12983191, -0.10253237, -0.04745214, 0.093523756, 0.1534601, -0.09123802, -0.06920508, -0.089741655, 0.15651146, -0.10929563, 0.019040836, 0.17906243, 0.0864466, 0.05273215, -0.027887126, -0.04210786, -0.15877867, 0.029072154, 0.18018937, -0.015557226, -0.16458751, 0.02698269, -0.15915288, 0.034650788, 0.17543289, -0.002867953, -0.0054113218, 0.10303968, 0.109753296, -0.17655109, -0.11521144, -0.14856893, 0.14040428, -0.12719749, 0.13902694, -0.08987605, 0.1986763, -0.12552767, 0.040045235, 0.046878565}, 
{-0.10177948, -0.24882396, -0.21994613, -0.17299138, 0.08996533, -0.01615933, -0.13719328, 0.18043952, -0.02891727, -0.18821786, -0.10849372, -0.066590406, -0.1665149, -0.01565766, 0.16134569, 0.03178145, -0.12521818, 0.20272283, 0.034579426, 0.12793915, -0.124125145, 0.09841986, 0.12520674, -0.06665726, -0.044505175, 0.09753954, -0.074491166, 0.049499717, 0.14735553, -0.13430804, 0.045312744, -0.124292, 0.07560899, -0.20202237, -0.14516445, 0.116112165, 0.12505426, -0.15126279, 0.10828188, 0.005551093, -0.009875779, 0.16536255, 0.12924689, -0.10522268, -0.15503702, 0.13251743, -0.018828252, -0.16473739, -0.14221904, -0.018970486, 0.06602017, 0.13699387, 0.14291301, -0.15035842, -0.18513653, -0.10917673, 0.13194765, 0.09873004, 0.1941508, 0.021322692, 0.12389238, -0.10495522, 0.086691104, 0.14432324}, 
{-0.16993074, -0.13383697, -0.053577997, -0.16767953, 0.12746406, -0.24639624, 0.14957373, 0.06392084, -0.0017068787, -0.106484205, 0.028249767, -0.17322657, -0.059746955, -0.07756217, -0.036894843, -0.023501955, -0.10001056, -0.054574028, 0.013680028, -0.095831245, 0.027969178, -0.038158916, -0.14262223, 0.093138024, -0.10981636, -0.16655385, -0.05030242, 0.05436554, 0.061372306, -0.106199265, 0.02074731, -0.05197178, 0.09960947, 0.06255147, -0.05852064, 0.14709519, -0.15336072, 0.23101537, -0.17976837, 0.16411886, -0.15738213, -0.054440457, -0.05745017, 0.17089587, -0.15779233, 0.18652047, -0.031222273, -0.12789957, 0.091801025, 0.12946445, 0.10455976, -0.18478394, 0.0531042, 0.16366261, -0.058757536, -0.10932477, -0.09141122, 0.17767632, 0.12532635, -0.14477126, -0.060591474, -0.020115724, -0.27691564, 0.12262925}, 
{0.18494292, -0.13802294, 0.10232269, -0.106023, -0.17869158, -0.02636355, 0.19762242, 0.00842691, 0.1812645, 0.028154144, 0.121930614, -0.055620614, -0.012282542, 0.008705998, -0.14948848, 0.017816463, -0.10273165, 0.21344073, -0.06174683, -0.026543988, 0.10900195, 0.15338726, -0.19652571, 0.16184835, 0.01879121, 0.14760864, -0.034229875, 0.05683802, 0.11568398, -0.08189035, -0.04415651, 0.028160483, 0.0019222634, -0.086891346, 0.10515298, -0.13285391, 0.19376479, 0.2082668, -0.16090795, -0.15285277, -0.13482451, 0.21577266, -0.15867415, -0.023852793, 0.2140439, -0.001230619, 0.06724994, 0.0031427147, 0.029307688, -0.12204011, -0.09703928, 0.1414159, -0.12293899, 0.12250762, -0.08321115, 0.18190412, 0.17804305, -0.00974331, 0.22563599, -0.16676718, -0.006429869, 0.19298401, -0.04427412, -0.16453}, 
{-0.113374725, 0.22760764, 0.25233036, 0.055535506, -0.15087765, 0.15446094, 0.11352214, 0.065346256, 0.026025949, -0.014006088, -0.036137123, 0.029509608, 0.2191487, -0.16952315, -0.12981407, -0.26255578, 0.11368667, 0.13274898, -0.16634457, 0.12855794, -0.12002625, -0.08384532, -0.25812462, 0.14428687, -0.02842804, 0.1138312, -0.0009305891, 0.05274015, -0.106742255, -0.3092786, 0.0664409, -0.0076087466, -0.062012218, 0.0021112633, 0.10311747, -0.30562848, -0.07138083, 0.051608965, 0.027484415, -0.018450107, 0.09670463, -0.036554646, -0.17442559, -0.1488953, 0.03932944, -0.007860066, 0.19667181, -0.16451785, -0.0042471793, 0.088116735, 0.06368305, -0.010330878, -0.083935305, -0.15873499, -0.060675252, 0.25523174, -0.15348719, 0.08104637, 0.32927763, -0.23197803, 0.10717156, -0.080105215, -0.079310864, -0.1306047}, 
{0.12816943, 0.026741132, -0.03197336, 0.14637648, -0.037445877, -0.02957055, -0.074268185, 0.17443994, 0.13478121, -0.027281018, 0.17142269, -0.06004135, 0.15419765, 0.12740491, -0.057753567, -0.19299538, -0.16214949, -0.04644513, 0.07410012, -0.019560264, -0.125877, -0.009076308, -0.15064457, 0.079208195, -0.01570203, 0.039196916, 0.18669705, 0.12534834, 0.16466776, -0.05502752, -0.009951422, -0.1609852, 0.11094344, 0.016383868, -0.13903815, 0.033558547, 0.04313911, 0.03132724, -0.033330634, 0.1276006, -0.09727381, -0.0022594847, -0.048541754, -0.044878326, 0.18738942, 0.10985854, 0.17406856, 0.1800179, -0.050095744, -0.05737771, 0.09002771, 0.02998641, -0.033956066, -0.13194123, 0.11576647, 0.040637776, 0.0063753263, -0.17803982, 0.30759233, 0.02992038, 0.036326062, 0.025090925, 0.02086692, -0.22211982}, 
{0.072888575, 0.110252425, 0.37778273, 0.2118607, -0.031381123, 0.072308086, 0.024409762, 0.16799425, 0.033351056, 0.17984293, -0.06268039, -0.018021068, 0.1070593, 0.25826675, 0.18832806, -0.13514628, 0.16327485, -0.11489708, -0.1383288, 0.051908996, 0.1346776, 0.048728753, 0.13465464, 0.32232174, 0.20554264, -0.028514812, 0.0991325, -0.13971002, -0.14982818, 0.17637019, 0.22872731, 0.17906007, -0.2272952, 0.10703385, 0.008659506, -0.20362763, -0.005627888, -0.0282237, 0.17181177, 0.06652648, 0.053315576, 0.10452539, 0.14174752, 0.15595368, -0.039800603, -0.10643383, -0.10236407, 0.009769235, 0.061977245, -0.015862161, -0.044996757, -0.003114826, -0.003658219, 0.16980006, 0.18591411, -0.10866851, 0.08415928, 0.036386553, -0.097345226, 0.015871326, 0.14110702, 0.09118356, 0.16937767, -0.0571779}, 
{-0.019966878, 0.08753285, -0.029992085, 0.007946604, 0.14581446, 0.1631154, -0.17175376, 0.1262104, -0.005592167, 0.09712958, 0.021673342, 0.08018249, 0.09184554, 0.16751376, 0.18184721, 0.13344468, 0.10761405, -0.10292727, 0.14431903, -0.16182041, 0.15679333, 0.15428932, -0.16377574, -0.2542095, 0.16796958, -0.21398519, -0.15835147, 0.09050128, 0.008401408, 0.09554865, 0.07927043, 0.0099485805, 0.008409414, -0.072495274, 0.024985144, -0.015831403, 0.08595938, 0.031236308, -0.17176184, -0.16198367, -0.14257103, 0.10300786, -0.10054962, -0.010569058, 0.15140137, -0.09490065, 0.18192439, 0.07239828, -0.16213736, 0.04408893, -0.058375977, 0.030892469, 0.14820524, 0.12357255, 0.20887078, -0.11225474, -0.10373425, 0.14370209, 0.20569263, -0.09599894, 0.12074882, -0.007873726, 0.059087135, -0.023087956}, 
{-0.075698346, 0.032976355, 0.09052972, 0.14741431, 0.030238802, 0.26481342, -0.15190293, 0.09810452, 0.14316218, 0.17659013, -0.10456961, 0.11515744, -0.12263031, -0.026826818, 0.1902571, 0.09756735, 0.03699383, 0.050792437, 0.055814937, -0.115207314, -0.1461899, -0.18135272, -0.17110509, 0.05102888, 0.15583205, 0.06650993, -0.05590977, 0.08362882, 0.007962824, -0.064319625, 0.12571348, 0.2119908, 0.022642765, -0.07969714, 0.03252257, -0.111170396, 0.1364632, -0.2648079, 0.17596576, 0.061579388, 0.14354335, -0.009465077, 0.012611684, 0.027140323, -0.055886775, 0.04854861, 0.13741551, -0.12396113, 0.15473042, 0.18392795, -0.15812053, 0.0831269, 0.12224561, -0.07461169, 0.24213111, 0.2340568, 0.104005955, 0.1394215, 0.22412601, 0.095135, 0.059364565, 0.18644075, -0.03423684, -0.045107123}, 
{-0.042478688, 0.11138294, -0.09424927, -0.09958713, 0.024367977, 0.054423314, 0.08633631, 0.16379854, 0.014769605, 0.07016736, -0.08037008, -0.020879205, 0.18071313, 0.050910853, 0.20496197, 0.09742432, -0.10635799, -0.012415526, 0.01224472, 0.037891604, 0.19001962, 0.052505236, 0.153198, -0.15980837, 0.18403016, 0.036622044, 0.15731798, 0.059698127, 0.14344281, 0.2300766, -0.116169065, 0.03639418, -0.028560523, 0.13076197, -0.0053870426, -0.113587, -0.014260326, 0.077635705, 0.16181676, 0.15385942, 0.22062969, 0.10987242, -0.09428404, -0.07429646, 0.04647501, 0.17579998, 0.09025987, 0.052347094, 0.11524308, 0.16939376, -0.088252105, 0.118705116, -0.09995005, 0.09204556, -0.101543814, -0.03536672, 0.14389782, -0.008698176, 0.17661308, 0.17503913, 0.14477856, 0.06394562, 0.040414378, 0.07332669}, 
{0.07244946, 0.19513647, -0.20422807, 0.13680224, 0.014701612, 0.07668385, 0.14430612, -0.17143807, 0.14985715, 0.070917696, 0.11334848, -0.075323395, 0.046959996, -0.067011036, -0.090638876, 0.10196968, 0.15634988, 0.13914792, 0.15866917, 0.1556344, -0.19892484, -0.011744457, 0.17573443, -0.21556678, 0.01720005, -0.1728566, 0.13144334, -0.07227122, 0.09986703, 0.08896843, 0.12261296, 0.038941998, -0.06746297, -0.0816906, 0.14943545, 0.24350674, -0.13115938, -0.1285886, 0.22065522, -0.094407886, 0.13612016, 0.16927229, 0.008937176, 0.16178541, -0.12644666, -0.04555521, 0.022368072, -0.057170928, 0.095376685, -0.11579886, 0.09064622, -0.019225772, -0.051918384, 0.19523409, -0.05781209, 0.11969765, -0.0827263, 0.17987028, 0.17868674, -0.0034155517, -0.15427656, 0.06729067, 0.17014974, 0.016087938}, 
{0.15466315, -0.3058524, 0.058647953, 0.030303178, -0.1992196, -0.0584513, 0.06578516, 0.14702785, -0.13161795, 0.20278673, 0.0726466, -0.13086154, -0.16021988, -0.03516945, 0.10455186, 0.16860165, 0.13888541, 0.029437255, 0.04245842, 0.09521517, 0.0023421005, -0.12646063, 0.06305053, -0.26914743, 0.069107175, 0.12297408, -0.031057741, 0.012443794, -0.011757883, -0.1648403, 0.111946784, 0.17892833, 0.12888181, -0.117114425, -0.13854201, -0.0029705924, 0.026685411, -0.2033761, 0.08963036, -0.12353019, 0.033579085, -0.053330243, 0.03127441, 0.10106318, -0.025464611, 0.1292455, -0.017601164, 0.05851979, -0.0027236538, -0.12302503, -0.029675635, -0.1851343, -0.03311392, 0.09389202, -0.12905712, 0.028184751, 0.13717076, 0.0783036, -0.018180639, -0.058137424, 0.0914646, 0.13815469, -0.20396903, -0.12250358}, 
{-0.09025331, 0.020187957, -0.09153998, 0.17225261, 0.03511349, 0.1233021, -0.16520247, 0.045420606, 0.16954978, -0.14962083, -0.17185912, 0.015469924, 0.084055446, 0.0575294, -0.13291682, -0.1033418, 0.036179014, -0.13546634, -0.11972339, 0.14807676, -0.060391247, -0.08706035, 0.18881577, 0.10428887, 0.19889092, 0.190829, -0.20384261, -0.06589079, -0.040350493, -0.21488978, 0.071749836, -0.024089336, -0.17488065, 0.04544489, -0.027382363, -0.11970032, -0.09084761, -0.20414676, -0.14487693, -0.1581836, 0.021975342, 0.008812373, -0.06942721, 0.102775976, 0.107187524, 0.20056053, 0.14613247, -0.087102085, -0.14719073, 0.043122817, 0.1626336, -0.040875435, -0.06954419, 0.0800187, 0.035016265, 0.14611392, -0.0899895, -0.07466692, -0.06756072, 0.21681511, 0.05725549, 0.06539279, -0.13082719, 0.1878129}, 
{0.15663032, -0.002512577, -0.14286608, 0.14746103, 0.11284996, -0.106562376, 0.19339833, 0.16166249, -0.012673937, -0.079661034, -0.08839894, 0.09295557, 0.0773958, -0.10100611, -0.05710445, 0.02355384, -0.11636862, 0.0064675943, 0.14416614, -0.18712594, -0.18547408, -0.0089308135, -0.21796662, 0.025193168, -0.1497134, 0.12669669, -0.16086751, -0.07025044, -0.023837931, -0.046908952, 0.13219064, 0.1307502, 0.06439031, 0.13371268, 0.17921004, 0.04103432, 0.058203038, 0.12213966, 0.094551146, -0.11949749, 0.17367539, 0.04468844, 0.18037248, -0.08293358, 0.004768574, 0.16211309, -0.019539429, -0.07605704, -0.12780711, 0.15900579, -0.14074531, -0.029573007, -0.005602525, -0.10166368, -0.08689855, -0.014266606, 0.13723755, -0.04063058, 0.17012997, -0.12870005, 0.008491795, 0.038750675, 0.12438583, 0.18622045}, 
{0.007140678, 0.03711482, 0.0703884, 0.17531039, -0.08179945, 0.124181055, 0.14946818, -0.0044341576, 0.19844514, 0.042602073, -0.19567224, -0.065781325, -0.0737005, -0.18400973, 0.12553146, -0.23409544, -0.0596004, 0.018924486, 0.12002851, 0.08309793, 0.028176297, 0.18599135, -0.08483385, 0.15235685, 0.20028658, 0.045945376, 0.19600813, 0.039454464, -0.17016141, -0.2410047, -0.04039868, -0.10619934, -0.051664352, 0.18443224, -0.049221165, 0.0030337365, 0.14377566, 0.06392215, 0.07448942, -0.15184219, -0.029810935, 0.052668396, 0.021813843, -0.026575005, -0.06488464, -0.0012312161, 0.03633202, -0.01854773, -0.16642857, -0.1467888, -0.18067032, 0.07862561, 0.08221662, 0.05905656, 0.17434779, 0.058218136, 0.042081643, -0.19288331, -0.057779387, -0.14175233, -0.1508641, 0.17172144, 0.15549913, 0.017674807}, 
{0.03514003, -0.039465837, 0.34542114, -0.03942694, -0.09291639, 0.29066753, 0.00030235093, 0.083825886, -0.06905917, -0.073358215, 0.17045109, 0.13473614, 0.14708598, 0.131064, -0.060415078, -0.03917339, 0.15617423, -0.1203714, -0.09295925, -0.21286984, 0.0014474606, 0.1733339, -0.07018782, 0.022843871, 0.19081791, -0.18348977, 0.21194649, -0.02801649, -0.17737395, 0.06297127, -0.02337755, 0.012692229, -0.12134223, -0.047332574, -0.033106495, -0.1374623, -0.034590047, 0.2352755, 0.021639938, -0.12083867, 0.09627503, 0.07192306, -0.12040505, -0.16874047, -0.03249823, -0.21907194, 0.040373113, 0.017754382, 0.10673253, 0.07024849, 0.1186222, -0.042086095, 0.036331818, -0.17083135, 0.16405112, -0.16451892, 0.13351117, 0.10713507, 0.03446766, -0.041516367, -0.10085533, 0.06051442, 0.035795625, -0.059252627}, 
{0.23105031, 0.19292425, 0.12421184, -0.11766427, -0.088752985, 0.19400385, -0.0870392, 0.18825188, -0.11393877, -0.005728235, 0.000659042, 0.052707896, 0.1259579, 0.27064407, 0.053137057, -0.20027767, -0.11054785, 0.07521146, -0.120918386, 0.09004164, 0.029077599, 0.027283553, 0.03231886, 0.1571988, 0.21780473, -0.110148475, -0.01264943, 0.018393068, -0.24510117, 0.172006, 0.12195865, 0.09604254, 0.11970628, -0.03132208, -0.05731735, -0.10625169, -0.0020983368, 0.011679753, 0.019145003, 0.042715844, 0.21326421, 0.0017724772, -0.021549324, 0.13204981, -0.121982515, 0.08074584, 0.014474513, 0.095227815, -0.14669596, -0.06831929, -0.04201697, -0.008312095, -0.03868029, -0.004869052, 0.030915871, -0.101447985, -0.05347331, 0.029953204, -0.12560841, -0.049547702, -0.06792758, -0.11315481, 0.22093025, 0.040743764}}