{{-0.25952154, 0.42514226}, 
{-0.371769, 0.41572645}, 
{-0.15424171, -0.36292675}, 
{0.35474035, -0.07663079}, 
{0.149081, -0.046769645}, 
{-0.08544865, 0.15983868}, 
{0.2642978, -0.3822499}, 
{-0.4455821, 0.34616497}, 
{0.12879889, -0.37498116}, 
{0.27482018, -0.21037227}, 
{-0.29365346, 0.053267274}, 
{-0.23793447, 0.5170078}, 
{-0.32895342, 0.31543928}, 
{0.15795252, -0.13267556}, 
{0.11873872, 0.3122148}, 
{0.082736805, -0.35644817}, 
{0.2894722, -0.191486}, 
{0.17678033, -0.23983148}, 
{0.5764783, -0.28444812}, 
{0.35917214, -0.27737096}, 
{-0.16618514, -0.24492255}, 
{-0.3800821, 0.21185932}, 
{-0.20909578, 0.37584195}, 
{0.35220784, -0.21977715}, 
{0.26343217, -0.34100008}, 
{0.24675848, -0.10657887}, 
{0.2777168, -0.061212856}, 
{-0.4226865, 0.19311962}, 
{-0.30935338, 0.15048221}, 
{0.27565193, -0.16833042}, 
{0.028523864, -0.39875516}, 
{-0.21424496, 0.0070247836}, 
{-0.3232246, 0.07922383}, 
{-0.22853431, 0.18476327}, 
{0.030838352, 0.2694044}, 
{0.3750842, -0.4136572}, 
{-0.007684016, 0.4426765}, 
{-0.23258244, 0.2515666}, 
{0.16320415, 0.16475005}, 
{0.26176807, -0.44244877}, 
{0.3540223, 0.117232725}, 
{-0.050211206, 0.26559883}, 
{0.076690674, -0.24947752}, 
{0.57415634, -0.105107345}, 
{-0.2673411, 0.34672585}, 
{-0.53164285, 0.10037949}, 
{0.29614192, -0.10828899}, 
{0.4835717, -0.1120064}, 
{0.14716436, -0.29249588}, 
{0.113603935, -0.2685171}, 
{0.30095324, 0.067197554}, 
{-0.19998725, 0.16881393}, 
{0.26070693, -0.42848805}, 
{0.15284233, -0.30370194}, 
{-0.29523054, 0.4793609}, 
{-0.5668815, 0.3494221}, 
{-0.15701279, 0.2948416}, 
{-0.31313047, 0.4283876}, 
{-0.31497866, 0.2288558}, 
{0.19684696, 0.16541962}, 
{-0.3432374, 0.43884802}, 
{0.28188062, -0.29732043}, 
{0.25742525, -0.17771141}, 
{0.22314712, 0.0770422}}